{"learner":{"attributes":{"scikit_learn":"{\"_estimator_type\": \"classifier\"}"},"feature_names":["distance","duration","aqi","traffic_delay","hour","day_of_week","is_weekend"],"feature_types":["float","float","int","float","int","int","int"],"gradient_booster":{"model":{"gbtree_model_param":{"num_parallel_tree":"1","num_trees":"300"},"iteration_indptr":[0,3,6,9,12,15,18,21,24,27,30,33,36,39,42,45,48,51,54,57,60,63,66,69,72,75,78,81,84,87,90,93,96,99,102,105,108,111,114,117,120,123,126,129,132,135,138,141,144,147,150,153,156,159,162,165,168,171,174,177,180,183,186,189,192,195,198,201,204,207,210,213,216,219,222,225,228,231,234,237,240,243,246,249,252,255,258,261,264,267,270,273,276,279,282,285,288,291,294,297,300],"tree_info":[0,1,2,0,1,2,0,1,2,0,1,2,0,1,2,0,1,2,0,1,2,0,1,2,0,1,2,0,1,2,0,1,2,0,1,2,0,1,2,0,1,2,0,1,2,0,1,2,0,1,2,0,1,2,0,1,2,0,1,2,0,1,2,0,1,2,0,1,2,0,1,2,0,1,2,0,1,2,0,1,2,0,1,2,0,1,2,0,1,2,0,1,2,0,1,2,0,1,2,0,1,2,0,1,2,0,1,2,0,1,2,0,1,2,0,1,2,0,1,2,0,1,2,0,1,2,0,1,2,0,1,2,0,1,2,0,1,2,0,1,2,0,1,2,0,1,2,0,1,2,0,1,2,0,1,2,0,1,2,0,1,2,0,1,2,0,1,2,0,1,2,0,1,2,0,1,2,0,1,2,0,1,2,0,1,2,0,1,2,0,1,2,0,1,2,0,1,2,0,1,2,0,1,2,0,1,2,0,1,2,0,1,2,0,1,2,0,1,2,0,1,2,0,1,2,0,1,2,0,1,2,0,1,2,0,1,2,0,1,2,0,1,2,0,1,2,0,1,2,0,1,2,0,1,2,0,1,2,0,1,2,0,1,2,0,1,2,0,1,2,0,1,2,0,1,2,0,1,2,0,1,2,0,1,2,0,1,2,0,1,2,0,1,2,0,1,2,0,1,2],"trees":[{"base_weights":[2.4499226E-1,6.507592E-1,-7.157361E-2,-1.2448137E-1,1.4410481E-1,-6.461539E-2,6.486482E-2,1E-1,-2.2147655E-1,-6.705883E-2,3.287671E-2],"categories":[],"categories_nodes":[],"categories_segments":[],"categories_sizes":[],"default_left":[0,0,0,0,0,0,0,0,0,0,0],"id":0,"left_children":[1,3,-1,5,-1,-1,7,-1,9,-1,-1],"loss_changes":[2.8576975E1,3.1561398E1,0E0,2.6869333E0,0E0,0E0,5.7255936E0,0E0,4.311691E0,0E0,0E0],"parents":[2147483647,0,0,1,1,3,3,6,6,8,8],"right_children":[2,4,-1,6,-1,-1,8,-1,10,-1,-1],"split_conditions":[1.51E2,1.4944956E1,-7.157361E-2,7E0,1.4410481E-1,-6.461539E-2,1E1,1E-1,1.7E1,-6.705883E-2,3.287671E-2],"split_indices":[2,3,0,4,0,0,4,0,4,0,0],"split_type":[0,0,0,0,0,0,0,0,0,0,0],"sum_hessian":[7.111111E1,5.0222218E1,2.0888887E1,2.5777777E1,2.4444443E1,6.222222E0,1.9555553E1,3.9999998E0,1.5555554E1,8.444444E0,7.1111107E0],"tree_param":{"num_deleted":"0","num_feature":"7","num_nodes":"11","size_leaf_vector":"1"}},{"base_weights":[-8.7827474E-2,-7.35358E-2,1.4314722E-1],"categories":[],"categories_nodes":[],"categories_segments":[],"categories_sizes":[],"default_left":[0,0,0],"id":1,"left_children":[1,-1,-1],"loss_changes":[7.199503E1,0E0,0E0],"parents":[2147483647,0,0],"right_children":[2,-1,-1],"split_conditions":[1.51E2,-7.35358E-2,1.4314722E-1],"split_indices":[2,0,0],"split_type":[0,0,0],"sum_hessian":[7.111111E1,5.0222218E1,2.0888887E1],"tree_param":{"num_deleted":"0","num_feature":"7","num_nodes":"3","size_leaf_vector":"1"}},{"base_weights":[-1.5716492E-1,4.353312E-1,-7.0381236E-1,8.908297E-1,-6.804124E-2,-3.2432437E-1,-7.2843455E-2,1.0473373E0,3.913043E-1,-2.5544848E-9,-4.8000004E-2,-2.5544848E-9,1.1273885E0,-5.675676E-2,1.1707317E-1,5.660377E-2,1.300885E-1],"categories":[],"categories_nodes":[],"categories_segments":[],"categories_sizes":[],"default_left":[0,0,0,0,0,0,0,0,0,0,0,0,0,0,0,0,0],"id":2,"left_children":[1,3,5,7,-1,9,-1,11,13,-1,-1,-1,15,-1,-1,-1,-1],"loss_changes":[2.3662207E1,1.8506754E1,1.1777878E-1,1.5794048E0,0E0,2.0756751E-1,0E0,1.5743427E0,6.3943133E0,0E0,0E0,0E0,9.626045E-1,0E0,0E0,0E0,0E0],"parents":[2147483647,0,0,1,1,2,2,3,3,5,5,7,7,8,8,12,12],"right_children":[2,4,6,8,-1,10,-1,12,14,-1,-1,-1,16,-1,-1,-1,-1],"split_conditions":[1.3910953E1,1.49E2,1.4944956E1,1.7E1,-6.804124E-2,6.2985558E1,-7.2843455E-2,2.7E1,2E1,-2.5544848E-9,-4.8000004E-2,-2.5544848E-9,9.157722E1,-5.675676E-2,1.1707317E-1,5.660377E-2,1.300885E-1],"split_indices":[3,2,3,4,0,0,0,2,4,0,0,0,1,0,0,0,0],"split_type":[0,0,0,0,0,0,0,0,0,0,0,0,0,0,0,0,0],"sum_hessian":[7.111111E1,3.422222E1,3.6888885E1,2.4444443E1,9.777777E0,3.111111E0,3.3777775E1,1.7777777E1,6.666666E0,1.3333333E0,1.7777777E0,1.3333333E0,1.6444443E1,3.111111E0,3.5555553E0,4.8888884E0,1.1555555E1],"tree_param":{"num_deleted":"0","num_feature":"7","num_nodes":"17","size_leaf_vector":"1"}},{"base_weights":[2.246752E-1,5.85815E-1,-6.884637E-2,-1.1720439E-1,1.2563714E-1,-6.243083E-2,6.165204E-2,9.2611596E-2,-2.1292098E-1,-6.504264E-2,3.0208012E-2],"categories":[],"categories_nodes":[],"categories_segments":[],"categories_sizes":[],"default_left":[0,0,0,0,0,0,0,0,0,0,0],"id":3,"left_children":[1,3,-1,5,-1,-1,7,-1,9,-1,-1],"loss_changes":[2.435477E1,2.4937445E1,0E0,2.4498699E0,0E0,0E0,5.0783777E0,0E0,3.8962662E0,0E0,0E0],"parents":[2147483647,0,0,1,1,3,3,6,6,8,8],"right_children":[2,4,-1,6,-1,-1,8,-1,10,-1,-1],"split_conditions":[1.51E2,1.4944956E1,-6.884637E-2,7E0,1.2563714E-1,-6.243083E-2,1E1,9.2611596E-2,1.7E1,-6.504264E-2,3.0208012E-2],"split_indices":[2,3,0,4,0,0,4,0,4,0,0],"split_type":[0,0,0,0,0,0,0,0,0,0,0],"sum_hessian":[7.163063E1,5.1586857E1,2.0043772E1,2.5586683E1,2.6000175E1,6.022055E0,1.9564627E1,4.1441817E0,1.5420445E1,8.195347E0,7.225099E0],"tree_param":{"num_deleted":"0","num_feature":"7","num_nodes":"11","size_leaf_vector":"1"}},{"base_weights":[-8.229267E-2,-7.090253E-2,1.2522005E-1],"categories":[],"categories_nodes":[],"categories_segments":[],"categories_sizes":[],"default_left":[0,0,0],"id":4,"left_children":[1,-1,-1],"loss_changes":[6.064287E1,0E0,0E0],"parents":[2147483647,0,0],"right_children":[2,-1,-1],"split_conditions":[1.51E2,-7.090253E-2,1.2522005E-1],"split_indices":[2,0,0],"split_type":[0,0,0],"sum_hessian":[7.0445656E1,4.8252842E1,2.2192814E1],"tree_param":{"num_deleted":"0","num_feature":"7","num_nodes":"3","size_leaf_vector":"1"}},{"base_weights":[-1.4649184E-1,3.9893025E-1,-6.772264E-1,7.996483E-1,-6.547046E-2,-3.115985E-1,-7.014028E-2,9.3272424E-1,3.615588E-1,-4.668648E-2,5.577981E-4,-3.5362228E-4,1.0015678E0,-5.587731E-2,1.08106434E-1,5.1755954E-2,1.1461971E-1],"categories":[],"categories_nodes":[],"categories_segments":[],"categories_sizes":[],"default_left":[0,0,0,0,0,0,0,0,0,0,0,0,0,0,0,0,0],"id":5,"left_children":[1,3,5,7,-1,9,-1,11,13,-1,-1,-1,15,-1,-1,-1,-1],"loss_changes":[2.089779E1,1.5627047E1,1.03969574E-1,1.199894E0,0E0,2.026608E-1,0E0,1.2662373E0,5.7532754E0,0E0,0E0,0E0,6.844368E-1,0E0,0E0,0E0,0E0],"parents":[2147483647,0,0,1,1,2,2,3,3,5,5,7,7,8,8,12,12],"right_children":[2,4,6,8,-1,10,-1,12,14,-1,-1,-1,16,-1,-1,-1,-1],"split_conditions":[1.3910953E1,1.49E2,1.4944956E1,1.7E1,-6.547046E-2,1.4544899E1,-7.014028E-2,2.7E1,2E1,-4.668648E-2,5.577981E-4,-3.5362228E-4,9.157722E1,-5.587731E-2,1.08106434E-1,5.1755954E-2,1.1461971E-1],"split_indices":[3,2,3,4,0,3,0,2,4,0,0,0,1,0,0,0,0],"split_type":[0,0,0,0,0,0,0,0,0,0,0,0,0,0,0,0,0],"sum_hessian":[7.0258896E1,3.4772472E1,3.5486423E1,2.536625E1,9.406225E0,3.062325E0,3.24241E1,1.8590153E1,6.7760963E0,1.7390659E0,1.323259E0,1.3382899E0,1.7251862E1,3.0711408E0,3.7049556E0,5.0224686E0,1.2229394E1],"tree_param":{"num_deleted":"0","num_feature":"7","num_nodes":"17","size_leaf_vector":"1"}},{"base_weights":[2.0790164E-1,5.3354794E-1,-6.641129E-2,-1.1006839E-1,1.1198397E-1,-6.0397457E-2,5.9297774E-2,8.6400084E-2,-2.0472904E-1,-6.317196E-2,2.7821604E-2],"categories":[],"categories_nodes":[],"categories_segments":[],"categories_sizes":[],"default_left":[0,0,0,0,0,0,0,0,0,0,0],"id":6,"left_children":[1,3,-1,5,-1,-1,7,-1,9,-1,-1],"loss_changes":[2.0916485E1,2.0226833E1,0E0,2.23642E0,0E0,0E0,4.532405E0,0E0,3.5254893E0,0E0,0E0],"parents":[2147483647,0,0,1,1,3,3,6,6,8,8],"right_children":[2,4,-1,6,-1,-1,8,-1,10,-1,-1],"split_conditions":[1.51E2,1.4944956E1,-6.641129E-2,7E0,1.1198397E-1,-6.0397457E-2,1E1,8.6400084E-2,1.7E1,-6.317196E-2,2.7821604E-2],"split_indices":[2,3,0,4,0,0,4,0,4,0,0],"split_type":[0,0,0,0,0,0,0,0,0,0,0],"sum_hessian":[7.141001E1,5.22761E1,1.9133917E1,2.5306988E1,2.696911E1,5.806874E0,1.9500113E1,4.2560606E0,1.5244053E1,7.927226E0,7.316827E0],"tree_param":{"num_deleted":"0","num_feature":"7","num_nodes":"11","size_leaf_vector":"1"}},{"base_weights":[-7.799441E-2,-6.860023E-2,1.11920536E-1],"categories":[],"categories_nodes":[],"categories_segments":[],"categories_sizes":[],"default_left":[0,0,0],"id":7,"left_children":[1,-1,-1],"loss_changes":[5.1845158E1,0E0,0E0],"parents":[2147483647,0,0],"right_children":[2,-1,-1],"split_conditions":[1.51E2,-6.860023E-2,1.11920536E-1],"split_indices":[2,0,0],"split_type":[0,0,0],"sum_hessian":[6.917022E1,4.6156334E1,2.3013885E1],"tree_param":{"num_deleted":"0","num_feature":"7","num_nodes":"3","size_leaf_vector":"1"}},{"base_weights":[-1.3693482E-1,3.68686E-1,-6.533589E-1,7.258146E-1,-6.313308E-2,-2.9920563E-1,-6.773296E-2,8.415887E-1,3.36133E-1,1.1043355E-3,-4.540239E-2,-6.101688E-4,9.023598E-1,-5.498157E-2,1.0069703E-1,4.7569733E-2,1.0275539E-1],"categories":[],"categories_nodes":[],"categories_segments":[],"categories_sizes":[],"default_left":[0,0,0,0,0,0,0,0,0,0,0,0,0,0,0,0,0],"id":8,"left_children":[1,3,5,7,-1,9,-1,11,13,-1,-1,-1,15,-1,-1,-1,-1],"loss_changes":[1.8510983E1,1.3312885E1,9.4257355E-2,9.3464947E-1,0E0,1.9755274E-1,0E0,1.0430679E0,5.2170033E0,0E0,0E0,0E0,5.1542854E-1,0E0,0E0,0E0,0E0],"parents":[2147483647,0,0,1,1,2,2,3,3,5,5,7,7,8,8,12,12],"right_children":[2,4,6,8,-1,10,-1,12,14,-1,-1,-1,16,-1,-1,-1,-1],"split_conditions":[1.3910953E1,1.49E2,1.4944956E1,1.7E1,-6.313308E-2,1.3E1,-6.773296E-2,2.7E1,2E1,1.1043355E-3,-4.540239E-2,-6.101688E-4,9.157722E1,-5.498157E-2,1.0069703E-1,4.7569733E-2,1.0275539E-1],"split_indices":[3,2,3,4,0,4,0,2,4,0,0,0,1,0,0,0,0],"split_type":[0,0,0,0,0,0,0,0,0,0,0,0,0,0,0,0,0],"sum_hessian":[6.896961E1,3.499387E1,3.397574E1,2.5987383E1,9.006485E0,3.0085354E0,3.0967205E1,1.9140944E1,6.846441E0,1.310673E0,1.6978624E0,1.3406032E0,1.780034E1,3.0279496E0,3.818491E0,5.1270385E0,1.2673302E1],"tree_param":{"num_deleted":"0","num_feature":"7","num_nodes":"17","size_leaf_vector":"1"}},{"base_weights":[1.9385122E-1,4.907171E-1,-6.423699E-2,-1.0298225E-1,1.0153214E-1,5.7688545E-2,-6.0421478E-2,-5.627517E-2,2.6107433E-1,9.737187E-2,-4.1432376E-3],"categories":[],"categories_nodes":[],"categories_segments":[],"categories_sizes":[],"default_left":[0,0,0,0,0,0,0,0,0,0,0],"id":9,"left_children":[1,3,-1,5,-1,7,-1,-1,9,-1,-1],"loss_changes":[1.8080748E1,1.6730637E1,0E0,2.1246662E0,0E0,2.7417917E0,0E0,0E0,3.5262303E0,0E0,0E0],"parents":[2147483647,0,0,1,1,3,3,5,5,8,8],"right_children":[2,4,-1,6,-1,8,-1,-1,10,-1,-1],"split_conditions":[1.51E2,1.4944956E1,-6.423699E-2,5E0,1.0153214E-1,7E0,-6.0421478E-2,-5.627517E-2,1E1,9.737187E-2,-4.1432376E-3],"split_indices":[2,3,0,5,0,4,0,0,4,0,0],"split_type":[0,0,0,0,0,0,0,0,0,0,0],"sum_hessian":[7.056433E1,5.238158E1,1.8182753E1,2.4949594E1,2.7431986E1,1.956342E1,5.386175E0,4.3935924E0,1.51698265E1,3.8592904E0,1.1310536E1],"tree_param":{"num_deleted":"0","num_feature":"7","num_nodes":"11","size_leaf_vector":"1"}},{"base_weights":[-7.466731E-2,-6.657291E-2,1.0168934E-1],"categories":[],"categories_nodes":[],"categories_segments":[],"categories_sizes":[],"default_left":[0,0,0],"id":10,"left_children":[1,-1,-1],"loss_changes":[4.4805573E1,0E0,0E0],"parents":[2147483647,0,0],"right_children":[2,-1,-1],"split_conditions":[1.51E2,-6.657291E-2,1.0168934E-1],"split_indices":[2,0,0],"split_type":[0,0,0],"sum_hessian":[6.7397354E1,4.3975483E1,2.3421873E1],"tree_param":{"num_deleted":"0","num_feature":"7","num_nodes":"3","size_leaf_vector":"1"}},{"base_weights":[-1.2830545E-1,3.4320414E-1,-6.318689E-1,6.6484344E-1,-6.100135E-2,-2.8720185E-1,-6.558427E-2,7.6743716E-1,3.14193E-1,1.632593E-3,-4.41523E-2,-7.888892E-4,8.222056E-1,-5.4080278E-2,9.447815E-2,4.3921184E-2,9.339092E-2],"categories":[],"categories_nodes":[],"categories_segments":[],"categories_sizes":[],"default_left":[0,0,0,0,0,0,0,0,0,0,0,0,0,0,0,0,0],"id":11,"left_children":[1,3,5,7,-1,9,-1,11,13,-1,-1,-1,15,-1,-1,-1,-1],"loss_changes":[1.6438343E1,1.1421672E1,8.753204E-2,7.425709E-1,0E0,1.922507E-1,0E0,8.753519E-1,4.7608886E0,0E0,0E0,0E0,4.078455E-1,0E0,0E0,0E0,0E0],"parents":[2147483647,0,0,1,1,2,2,3,3,5,5,7,7,8,8,12,12],"right_children":[2,4,6,8,-1,10,-1,12,14,-1,-1,-1,16,-1,-1,-1,-1],"split_conditions":[1.3910953E1,1.49E2,1.4944956E1,1.7E1,-6.100135E-2,3E0,-6.558427E-2,2.7E1,2E1,1.632593E-3,-4.41523E-2,-7.888892E-4,9.157722E1,-5.4080278E-2,9.447815E-2,4.3921184E-2,9.339092E-2],"split_indices":[3,2,3,4,0,5,0,2,4,0,0,0,1,0,0,0,0],"split_type":[0,0,0,0,0,0,0,0,0,0,0,0,0,0,0,0,0],"sum_hessian":[6.731969E1,3.4930813E1,3.2388874E1,2.6344164E1,8.586648E0,2.950458E0,2.9438416E1,1.9461489E1,6.8826747E0,1.2958713E0,1.6545869E0,1.3405173E0,1.8120972E1,2.9819386E0,3.9007359E0,5.2053895E0,1.2915583E1],"tree_param":{"num_deleted":"0","num_feature":"7","num_nodes":"17","size_leaf_vector":"1"}},{"base_weights":[1.817594E-1,4.5451713E-1,-6.2286444E-2,-9.5926404E-2,9.331282E-2,5.6928553E-2,-5.8513064E-2,-5.457386E-2,2.4772495E-1,9.1895E-2,-4.1747265E-3],"categories":[],"categories_nodes":[],"categories_segments":[],"categories_sizes":[],"default_left":[0,0,0,0,0,0,0,0,0,0,0],"id":12,"left_children":[1,3,-1,5,-1,7,-1,-1,9,-1,-1],"loss_changes":[1.5701824E1,1.4064654E1,0E0,1.946026E0,0E0,2.4809923E0,0E0,0E0,3.1827114E0,0E0,0E0],"parents":[2147483647,0,0,1,1,3,3,5,5,8,8],"right_children":[2,4,-1,6,-1,8,-1,-1,10,-1,-1],"split_conditions":[1.51E2,1.4944956E1,-6.2286444E-2,5E0,9.331282E-2,7E0,-5.8513064E-2,-5.457386E-2,1E1,9.1895E-2,-4.1747265E-3],"split_indices":[2,3,0,5,0,4,0,0,4,0,0],"split_type":[0,0,0,0,0,0,0,0,0,0,0],"sum_hessian":[6.925518E1,5.2046997E1,1.7208185E1,2.4578825E1,2.7468174E1,1.9400612E1,5.1782136E0,4.2177424E0,1.5182869E1,3.9195921E0,1.1263277E1],"tree_param":{"num_deleted":"0","num_feature":"7","num_nodes":"11","size_leaf_vector":"1"}},{"base_weights":[-7.215905E-2,-6.477966E-2,9.361167E-2],"categories":[],"categories_nodes":[],"categories_segments":[],"categories_sizes":[],"default_left":[0,0,0],"id":13,"left_children":[1,-1,-1],"loss_changes":[3.9050472E1,0E0,0E0],"parents":[2147483647,0,0],"right_children":[2,-1,-1],"split_conditions":[1.51E2,-6.477966E-2,9.361167E-2],"split_indices":[2,0,0],"split_type":[0,0,0],"sum_hessian":[6.523702E1,4.1755684E1,2.3481335E1],"tree_param":{"num_deleted":"0","num_feature":"7","num_nodes":"3","size_leaf_vector":"1"}},{"base_weights":[-1.20320566E-1,3.2133484E-1,-6.123581E-1,6.131131E-1,-5.9040356E-2,-2.748327E-1,-6.3661255E-2,7.103707E-1,2.8308833E-1,2.049763E-3,-4.283875E-2,4.5138043E-1,9.418852E-2,-5.356137E-2,8.778399E-2,8.87263E-2,-3.9515067E-2],"categories":[],"categories_nodes":[],"categories_segments":[],"categories_sizes":[],"default_left":[0,0,0,0,0,0,0,0,0,0,0,0,0,0,0,0,0],"id":14,"left_children":[1,3,5,7,-1,9,-1,11,13,-1,-1,15,-1,-1,-1,-1,-1],"loss_changes":[1.4627404E1,9.8458395E0,8.5001945E-2,6.81509E-1,0E0,1.8512666E-1,0E0,8.0860233E-1,4.3273783E0,0E0,0E0,4.642695E0,0E0,0E0,0E0,0E0,0E0],"parents":[2147483647,0,0,1,1,2,2,3,3,5,5,7,7,8,8,11,11],"right_children":[2,4,6,8,-1,10,-1,12,14,-1,-1,16,-1,-1,-1,-1,-1],"split_conditions":[1.3910953E1,1.49E2,1.4944956E1,1.7E1,-5.9040356E-2,3E0,-6.3661255E-2,1E1,2E1,2.049763E-3,-4.283875E-2,7E0,9.418852E-2,-5.356137E-2,8.778399E-2,8.87263E-2,-3.9515067E-2],"split_indices":[3,2,3,4,0,5,0,4,4,0,0,4,0,0,0,0,0],"split_type":[0,0,0,0,0,0,0,0,0,0,0,0,0,0,0,0,0],"sum_hessian":[6.5405426E1,3.465018E1,3.0755249E1,2.6497784E1,8.152396E0,2.8886018E0,2.7866648E1,1.9576235E1,6.9215493E0,1.2845511E0,1.6040508E0,1.0632062E1,8.944173E0,2.954282E0,3.9672673E0,6.9865437E0,3.6455176E0],"tree_param":{"num_deleted":"0","num_feature":"7","num_nodes":"17","size_leaf_vector":"1"}},{"base_weights":[1.7110132E-1,4.2367056E-1,-6.0527902E-2,-9.014349E-2,8.670861E-2,5.544424E-2,-5.6785453E-2,-5.282233E-2,2.3369378E-1,8.5257195E-2,-3.839764E-3],"categories":[],"categories_nodes":[],"categories_segments":[],"categories_sizes":[],"default_left":[0,0,0,0,0,0,0,0,0,0,0],"id":15,"left_children":[1,3,-1,5,-1,7,-1,-1,9,-1,-1],"loss_changes":[1.3688417E1,1.1987767E1,0E0,1.7785736E0,0E0,2.221259E0,0E0,0E0,2.7505462E0,0E0,0E0],"parents":[2147483647,0,0,1,1,3,3,5,5,8,8],"right_children":[2,4,-1,6,-1,8,-1,-1,10,-1,-1],"split_conditions":[1.51E2,1.4944956E1,-6.0527902E-2,5E0,8.670861E-2,7E0,-5.6785453E-2,-5.282233E-2,1E1,8.5257195E-2,-3.839764E-3],"split_indices":[2,3,0,5,0,4,0,0,4,0,0],"split_type":[0,0,0,0,0,0,0,0,0,0,0],"sum_hessian":[6.749912E1,5.127336E1,1.6225763E1,2.4120314E1,2.7153048E1,1.9163855E1,4.956459E0,4.0240264E0,1.5139828E1,3.972006E0,1.1167822E1],"tree_param":{"num_deleted":"0","num_feature":"7","num_nodes":"11","size_leaf_vector":"1"}},{"base_weights":[-7.001189E-2,-6.316078E-2,8.710089E-2],"categories":[],"categories_nodes":[],"categories_segments":[],"categories_sizes":[],"default_left":[0,0,0],"id":16,"left_children":[1,-1,-1],"loss_changes":[3.4249767E1,0E0,0E0],"parents":[2147483647,0,0],"right_children":[2,-1,-1],"split_conditions":[1.51E2,-6.316078E-2,8.710089E-2],"split_indices":[2,0,0],"split_type":[0,0,0],"sum_hessian":[6.2767883E1,3.9514603E1,2.3253283E1],"tree_param":{"num_deleted":"0","num_feature":"7","num_nodes":"3","size_leaf_vector":"1"}},{"base_weights":[-1.1299365E-1,3.0313793E-1,-5.946269E-1,5.7046825E-1,-5.7237327E-2,-2.6283988E-1,-6.193468E-2,6.64479E-1,2.5540575E-1,2.8543465E-3,-4.178534E-2,4.2090166E-1,8.7996066E-2,-5.3026088E-2,8.214721E-2,8.2493804E-2,-3.752413E-2],"categories":[],"categories_nodes":[],"categories_segments":[],"categories_sizes":[],"default_left":[0,0,0,0,0,0,0,0,0,0,0,0,0,0,0,0,0],"id":17,"left_children":[1,3,5,7,-1,9,-1,11,13,-1,-1,15,-1,-1,-1,-1,-1],"loss_changes":[1.3050215E1,8.544491E0,8.410072E-2,6.4184E-1,0E0,1.846743E-1,0E0,7.044592E-1,3.9584355E0,0E0,0E0,4.0182157E0,0E0,0E0,0E0,0E0,0E0],"parents":[2147483647,0,0,1,1,2,2,3,3,5,5,7,7,8,8,11,11],"right_children":[2,4,6,8,-1,10,-1,12,14,-1,-1,16,-1,-1,-1,-1,-1],"split_conditions":[1.3910953E1,1.49E2,1.4944956E1,1.7E1,-5.7237327E-2,1.3E1,-6.193468E-2,1E1,2E1,2.8543465E-3,-4.178534E-2,7E0,8.7996066E-2,-5.3026088E-2,8.214721E-2,8.2493804E-2,-3.752413E-2],"split_indices":[3,2,3,4,0,4,0,4,4,0,0,4,0,0,0,0,0],"split_type":[0,0,0,0,0,0,0,0,0,0,0,0,0,0,0,0,0],"sum_hessian":[6.3214058E1,3.4111927E1,2.9102133E1,2.6399475E1,7.712451E0,2.824521E0,2.627761E1,1.947834E1,6.921135E0,1.2641419E0,1.5603793E0,1.0529383E1,8.9489565E0,2.9248579E0,3.9962769E0,6.9607086E0,3.5686738E0],"tree_param":{"num_deleted":"0","num_feature":"7","num_nodes":"17","size_leaf_vector":"1"}},{"base_weights":[1.618273E-1,3.972374E-1,-5.893401E-2,-8.4626675E-2,8.130779E-2,5.4342784E-2,-5.5182453E-2,-5.1172018E-2,2.2130468E-1,7.967625E-2,-3.4909442E-3],"categories":[],"categories_nodes":[],"categories_segments":[],"categories_sizes":[],"default_left":[0,0,0,0,0,0,0,0,0,0,0],"id":18,"left_children":[1,3,-1,5,-1,7,-1,-1,9,-1,-1],"loss_changes":[1.1977531E1,1.032038E1,0E0,1.6274886E0,0E0,1.9915868E0,0E0,0E0,2.3935869E0,0E0,0E0],"parents":[2147483647,0,0,1,1,3,3,5,5,8,8],"right_children":[2,4,-1,6,-1,8,-1,-1,10,-1,-1],"split_conditions":[1.51E2,1.4944956E1,-5.893401E-2,5E0,8.130779E-2,7E0,-5.5182453E-2,-5.1172018E-2,1E1,7.967625E-2,-3.4909442E-3],"split_indices":[2,3,0,5,0,4,0,0,4,0,0],"split_type":[0,0,0,0,0,0,0,0,0,0,0],"sum_hessian":[6.5409904E1,5.0161007E1,1.5248901E1,2.3604862E1,2.6556145E1,1.887432E1,4.730542E0,3.828702E0,1.5045617E1,3.985167E0,1.1060451E1],"tree_param":{"num_deleted":"0","num_feature":"7","num_nodes":"11","size_leaf_vector":"1"}},{"base_weights":[-6.833724E-2,-6.1718743E-2,8.176101E-2],"categories":[],"categories_nodes":[],"categories_segments":[],"categories_sizes":[],"default_left":[0,0,0],"id":19,"left_children":[1,-1,-1],"loss_changes":[3.020385E1,0E0,0E0],"parents":[2147483647,0,0],"right_children":[2,-1,-1],"split_conditions":[1.51E2,-6.1718743E-2,8.176101E-2],"split_indices":[2,0,0],"split_type":[0,0,0],"sum_hessian":[6.007781E1,3.728368E1,2.2794127E1],"tree_param":{"num_deleted":"0","num_feature":"7","num_nodes":"3","size_leaf_vector":"1"}},{"base_weights":[-1.0628616E-1,2.874185E-1,-5.784219E-1,5.3405076E-1,-5.557215E-2,-2.5117746E-1,-6.0378637E-2,6.259329E-1,2.3063628E-1,-4.0768486E-2,3.6371795E-3,3.947695E-1,8.282566E-2,-5.247409E-2,7.734918E-2,7.7287935E-2,-3.562224E-2],"categories":[],"categories_nodes":[],"categories_segments":[],"categories_sizes":[],"default_left":[0,0,0,0,0,0,0,0,0,0,0,0,0,0,0,0,0],"id":20,"left_children":[1,3,5,7,-1,9,-1,11,13,-1,-1,15,-1,-1,-1,-1,-1],"loss_changes":[1.1661736E1,7.4481287E0,8.450794E-2,6.1162376E-1,0E0,1.8399796E-1,0E0,6.192198E-1,3.6398509E0,0E0,0E0,3.4991126E0,0E0,0E0,0E0,0E0,0E0],"parents":[2147483647,0,0,1,1,2,2,3,3,5,5,7,7,8,8,11,11],"right_children":[2,4,6,8,-1,10,-1,12,14,-1,-1,16,-1,-1,-1,-1,-1],"split_conditions":[1.3910953E1,1.49E2,1.4944956E1,1.7E1,-5.557215E-2,1.4544899E1,-6.0378637E-2,1E1,2E1,-4.0768486E-2,3.6371795E-3,7E0,8.282566E-2,-5.247409E-2,7.734918E-2,7.7287935E-2,-3.562224E-2],"split_indices":[3,2,3,4,0,3,0,4,4,0,0,4,0,0,0,0,0],"split_type":[0,0,0,0,0,0,0,0,0,0,0,0,0,0,0,0,0],"sum_hessian":[6.0842903E1,3.339048E1,2.7452423E1,2.6117327E1,7.273152E0,2.7590275E0,2.4693398E1,1.9230766E1,6.886561E0,1.5160692E0,1.2429582E0,1.0353094E1,8.877671E0,2.8935661E0,3.992995E0,6.866699E0,3.4863946E0],"tree_param":{"num_deleted":"0","num_feature":"7","num_nodes":"17","size_leaf_vector":"1"}},{"base_weights":[1.5366805E-1,3.7429193E-1,-5.748108E-2,-7.9377875E-2,7.6824516E-2,5.354066E-2,-5.3691603E-2,-4.961193E-2,2.1029662E-1,7.492518E-2,-3.1380889E-3],"categories":[],"categories_nodes":[],"categories_segments":[],"categories_sizes":[],"default_left":[0,0,0,0,0,0,0,0,0,0,0],"id":21,"left_children":[1,3,-1,5,-1,7,-1,-1,9,-1,-1],"loss_changes":[1.0513062E1,8.958802E0,0E0,1.4910607E0,0E0,1.7880888E0,0E0,0E0,2.09553E0,0E0,0E0],"parents":[2147483647,0,0,1,1,3,3,5,5,8,8],"right_children":[2,4,-1,6,-1,8,-1,-1,10,-1,-1],"split_conditions":[1.51E2,1.4944956E1,-5.748108E-2,5E0,7.6824516E-2,7E0,-5.3691603E-2,-4.961193E-2,1E1,7.492518E-2,-3.1380889E-3],"split_indices":[2,3,0,5,0,4,0,0,4,0,0],"split_type":[0,0,0,0,0,0,0,0,0,0,0],"sum_hessian":[6.3073704E1,4.8785072E1,1.42886305E1,2.3045166E1,2.5739906E1,1.8541647E1,4.5035176E0,3.6340494E0,1.49075985E1,3.965062E0,1.0942536E1],"tree_param":{"num_deleted":"0","num_feature":"7","num_nodes":"11","size_leaf_vector":"1"}},{"base_weights":[-6.7055516E-2,-6.042961E-2,7.7316925E-2],"categories":[],"categories_nodes":[],"categories_segments":[],"categories_sizes":[],"default_left":[0,0,0],"id":22,"left_children":[1,-1,-1],"loss_changes":[2.675783E1,0E0,0E0],"parents":[2147483647,0,0],"right_children":[2,-1,-1],"split_conditions":[1.51E2,-6.042961E-2,7.7316925E-2],"split_indices":[2,0,0],"split_type":[0,0,0],"sum_hessian":[5.724201E1,3.5087692E1,2.2154316E1],"tree_param":{"num_deleted":"0","num_feature":"7","num_nodes":"3","size_leaf_vector":"1"}},{"base_weights":[-1.0009439E-1,2.7371043E-1,-5.6352717E-1,5.0257885E-1,-5.402534E-2,-2.3985144E-1,-5.897039E-2,5.931773E-1,2.0831071E-1,4.0472345E-3,-3.9619543E-2,3.7211668E-1,7.845146E-2,-5.1909056E-2,7.322091E-2,7.28789E-2,-3.3806182E-2],"categories":[],"categories_nodes":[],"categories_segments":[],"categories_sizes":[],"default_left":[0,0,0,0,0,0,0,0,0,0,0,0,0,0,0,0,0],"id":23,"left_children":[1,3,5,7,-1,9,-1,11,13,-1,-1,15,-1,-1,-1,-1,-1],"loss_changes":[1.0435696E1,6.5169134E0,8.5843086E-2,5.8787394E-1,0E0,1.7787488E-1,0E0,5.4818916E-1,3.3613262E0,0E0,0E0,3.062503E0,0E0,0E0,0E0,0E0,0E0],"parents":[2147483647,0,0,1,1,2,2,3,3,5,5,7,7,8,8,11,11],"right_children":[2,4,6,8,-1,10,-1,12,14,-1,-1,16,-1,-1,-1,-1,-1],"split_conditions":[1.3910953E1,1.49E2,1.4944956E1,1.7E1,-5.402534E-2,3E0,-5.897039E-2,1E1,2E1,4.0472345E-3,-3.9619543E-2,7E0,7.845146E-2,-5.1909056E-2,7.322091E-2,7.28789E-2,-3.3806182E-2],"split_indices":[3,2,3,4,0,5,0,4,4,0,0,4,0,0,0,0,0],"split_type":[0,0,0,0,0,0,0,0,0,0,0,0,0,0,0,0,0],"sum_hessian":[5.8350277E1,3.2525E1,2.5825277E1,2.5685396E1,6.8396053E0,2.6927054E0,2.3132572E1,1.886234E1,6.8230543E0,1.229447E0,1.4632585E0,1.0117713E1,8.744629E0,2.8605418E0,3.9625125E0,6.717689E0,3.400024E0],"tree_param":{"num_deleted":"0","num_feature":"7","num_nodes":"17","size_leaf_vector":"1"}},{"base_weights":[1.4641325E-1,3.5413355E-1,-5.6148496E-2,-7.439537E-2,7.305454E-2,-2.391095E-1,2.675896E-1,4.216846E-2,-5.6715783E-2,8.637992E-2,-5.1785033E-2,-5.0386157E-2,5.766083E-2],"categories":[],"categories_nodes":[],"categories_segments":[],"categories_sizes":[],"default_left":[0,0,0,0,0,0,0,0,0,0,0,0,0],"id":24,"left_children":[1,3,-1,5,-1,7,9,11,-1,-1,-1,-1,-1],"loss_changes":[9.251757E0,7.8310924E0,0E0,1.3850714E0,0E0,1.5332222E0,4.238452E0,3.1320012E0,0E0,0E0,0E0,0E0,0E0],"parents":[2147483647,0,0,1,1,3,3,5,5,6,6,7,7],"right_children":[2,4,-1,6,-1,8,10,12,-1,-1,-1,-1,-1],"split_conditions":[1.51E2,1.4944956E1,-5.6148496E-2,1.7E1,7.305454E-2,1E1,2E1,7E0,-5.6715783E-2,8.637992E-2,-5.1785033E-2,-5.0386157E-2,5.766083E-2],"split_indices":[2,3,0,4,0,4,4,4,0,0,0,0,0],"split_type":[0,0,0,0,0,0,0,0,0,0,0,0,0],"sum_hessian":[6.056569E1,4.721192E1,1.335377E1,2.2452759E1,2.4759163E1,1.5357007E1,7.0957513E0,8.73706E0,6.619947E0,3.9770772E0,3.1186738E0,4.34997E0,4.38709E0],"tree_param":{"num_deleted":"0","num_feature":"7","num_nodes":"13","size_leaf_vector":"1"}},{"base_weights":[-6.6102296E-2,-5.9272774E-2,7.357193E-2],"categories":[],"categories_nodes":[],"categories_segments":[],"categories_sizes":[],"default_left":[0,0,0],"id":25,"left_children":[1,-1,-1],"loss_changes":[2.3797417E1,0E0,0E0],"parents":[2147483647,0,0],"right_children":[2,-1,-1],"split_conditions":[1.51E2,-5.9272774E-2,7.357193E-2],"split_indices":[2,0,0],"split_type":[0,0,0],"sum_hessian":[5.4324577E1,3.2946526E1,2.1378052E1],"tree_param":{"num_deleted":"0","num_feature":"7","num_nodes":"3","size_leaf_vector":"1"}},{"base_weights":[-9.433459E-2,2.6164997E-1,-5.497556E-1,4.7508577E-1,-5.257953E-2,-2.2888935E-1,-5.76899E-2,5.650503E-1,1.8805712E-1,4.795562E-3,-3.869107E-2,3.522798E-1,7.470743E-2,-5.133411E-2,6.963365E-2,6.909766E-2,-3.2071944E-2],"categories":[],"categories_nodes":[],"categories_segments":[],"categories_sizes":[],"default_left":[0,0,0,0,0,0,0,0,0,0,0,0,0,0,0,0,0],"id":26,"left_children":[1,3,5,7,-1,9,-1,11,13,-1,-1,15,-1,-1,-1,-1,-1],"loss_changes":[9.350264E0,5.7205186E0,8.774662E-2,5.68593E-1,0E0,1.7718428E-1,0E0,4.881301E-1,3.1152058E0,0E0,0E0,2.691689E0,0E0,0E0,0E0,0E0,0E0],"parents":[2147483647,0,0,1,1,2,2,3,3,5,5,7,7,8,8,11,11],"right_children":[2,4,6,8,-1,10,-1,12,14,-1,-1,16,-1,-1,-1,-1,-1],"split_conditions":[1.3910953E1,1.49E2,1.4944956E1,1.7E1,-5.257953E-2,1.3E1,-5.76899E-2,1E1,2E1,4.795562E-3,-3.869107E-2,7E0,7.470743E-2,-5.133411E-2,6.963365E-2,6.909766E-2,-3.2071944E-2],"split_indices":[3,2,3,4,0,4,0,4,4,0,0,4,0,0,0,0,0],"split_type":[0,0,0,0,0,0,0,0,0,0,0,0,0,0,0,0,0],"sum_hessian":[5.5786694E1,3.1550442E1,2.4236252E1,2.513446E1,6.415982E0,2.626038E0,2.1610214E1,1.8398975E1,6.7354836E0,1.2073498E0,1.4186883E0,9.836407E0,8.56257E0,2.8259146E0,3.9095688E0,6.5255933E0,3.310813E0],"tree_param":{"num_deleted":"0","num_feature":"7","num_nodes":"17","size_leaf_vector":"1"}},{"base_weights":[1.402719E-1,3.3735117E-1,-5.491827E-2,-7.011597E-2,6.984801E-2,5.4323982E-2,-5.1378485E-2,-4.668672E-2,1.9488342E-1,6.7671955E-2,-2.5272619E-3],"categories":[],"categories_nodes":[],"categories_segments":[],"categories_sizes":[],"default_left":[0,0,0,0,0,0,0,0,0,0,0],"id":27,"left_children":[1,3,-1,5,-1,7,-1,-1,9,-1,-1],"loss_changes":[8.174418E0,6.868645E0,0E0,1.280325E0,0E0,1.4550556E0,0E0,0E0,1.6475941E0,0E0,0E0],"parents":[2147483647,0,0,1,1,3,3,5,5,8,8],"right_children":[2,4,-1,6,-1,8,-1,-1,10,-1,-1],"split_conditions":[1.51E2,1.4944956E1,-5.491827E-2,5E0,6.984801E-2,7E0,-5.1378485E-2,-4.668672E-2,1E1,6.7671955E-2,-2.5272619E-3],"split_indices":[2,3,0,5,0,4,0,0,4,0,0],"split_type":[0,0,0,0,0,0,0,0,0,0,0],"sum_hessian":[5.7796856E1,4.5345604E1,1.2451253E1,2.16845E1,2.3661102E1,1.7620008E1,4.0644913E0,3.2494884E0,1.4370521E1,3.856444E0,1.0514076E1],"tree_param":{"num_deleted":"0","num_feature":"7","num_nodes":"11","size_leaf_vector":"1"}},{"base_weights":[-6.461356E-2,-5.8149006E-2,7.037991E-2],"categories":[],"categories_nodes":[],"categories_segments":[],"categories_sizes":[],"default_left":[0,0,0],"id":28,"left_children":[1,-1,-1],"loss_changes":[2.1200037E1,0E0,0E0],"parents":[2147483647,0,0],"right_children":[2,-1,-1],"split_conditions":[1.51E2,-5.8149006E-2,7.037991E-2],"split_indices":[2,0,0],"split_type":[0,0,0],"sum_hessian":[5.134673E1,3.0843178E1,2.0503553E1],"tree_param":{"num_deleted":"0","num_feature":"7","num_nodes":"3","size_leaf_vector":"1"}},{"base_weights":[-8.9992985E-2,2.5034893E-1,-5.369141E-1,4.511649E-1,-5.1226687E-2,-2.1741776E-1,-5.6519486E-2,5.36866E-1,1.7733243E-1,-3.7427187E-2,5.155032E-3,3.3461493E-1,7.080455E-2,-4.9578946E-2,6.586539E-2,6.579851E-2,-3.0311048E-2],"categories":[],"categories_nodes":[],"categories_segments":[],"categories_sizes":[],"default_left":[0,0,0,0,0,0,0,0,0,0,0,0,0,0,0,0,0],"id":29,"left_children":[1,3,5,7,-1,9,-1,11,13,-1,-1,15,-1,-1,-1,-1,-1],"loss_changes":[8.357634E0,5.0357E0,9.116697E-2,5.0005865E-1,0E0,1.6913049E-1,0E0,4.1484547E-1,2.7692451E0,0E0,0E0,2.3700652E0,0E0,0E0,0E0,0E0,0E0],"parents":[2147483647,0,0,1,1,2,2,3,3,5,5,7,7,8,8,11,11],"right_children":[2,4,6,8,-1,10,-1,12,14,-1,-1,16,-1,-1,-1,-1,-1],"split_conditions":[1.3910953E1,1.49E2,1.4944956E1,1.7E1,-5.1226687E-2,1.4544899E1,-5.6519486E-2,1E1,2E1,-3.7427187E-2,5.155032E-3,7E0,7.080455E-2,-4.9578946E-2,6.586539E-2,6.579851E-2,-3.0311048E-2],"split_indices":[3,2,3,4,0,3,0,4,4,0,0,4,0,0,0,0,0],"split_type":[0,0,0,0,0,0,0,0,0,0,0,0,0,0,0,0,0],"sum_hessian":[5.3062416E1,3.037268E1,2.2689737E1,2.4365126E1,6.007554E0,2.5515795E0,2.0138159E1,1.7825676E1,6.53945E0,1.364395E0,1.1871846E0,9.525691E0,8.299985E0,2.713957E0,3.825493E0,6.2995973E0,3.2260938E0],"tree_param":{"num_deleted":"0","num_feature":"7","num_nodes":"17","size_leaf_vector":"1"}},{"base_weights":[1.3428567E-1,3.2119265E-1,-5.3774666E-2,-6.58955E-2,6.7093395E-2,-2.2896336E-1,2.5628543E-1,3.926091E-2,-5.4356914E-2,7.840431E-2,-4.887341E-2,-4.7668707E-2,5.104201E-2],"categories":[],"categories_nodes":[],"categories_segments":[],"categories_sizes":[],"default_left":[0,0,0,0,0,0,0,0,0,0,0,0,0],"id":30,"left_children":[1,3,-1,5,-1,7,9,11,-1,-1,-1,-1,-1],"loss_changes":[7.2220664E0,6.0735006E0,0E0,1.2171183E0,0E0,1.3013012E0,3.4821858E0,2.4603815E0,0E0,0E0,0E0,0E0,0E0],"parents":[2147483647,0,0,1,1,3,3,5,5,6,6,7,7],"right_children":[2,4,-1,6,-1,8,10,12,-1,-1,-1,-1,-1],"split_conditions":[1.51E2,1.4944956E1,-5.3774666E-2,1.7E1,6.7093395E-2,1E1,2E1,7E0,-5.4356914E-2,7.840431E-2,-4.887341E-2,-4.7668707E-2,5.104201E-2],"split_indices":[2,3,0,4,0,4,4,4,0,0,0,0,0],"split_type":[0,0,0,0,0,0,0,0,0,0,0,0,0],"sum_hessian":[5.5122005E1,4.35358E1,1.1586206E1,2.10498E1,2.2485998E1,1.4168118E1,6.8816833E0,8.1202345E0,6.047883E0,3.99753E0,2.8841536E0,3.870294E0,4.2499404E0],"tree_param":{"num_deleted":"0","num_feature":"7","num_nodes":"13","size_leaf_vector":"1"}},{"base_weights":[-6.409429E-2,-5.7198014E-2,6.763163E-2],"categories":[],"categories_nodes":[],"categories_segments":[],"categories_sizes":[],"default_left":[0,0,0],"id":31,"left_children":[1,-1,-1],"loss_changes":[1.8968792E1,0E0,0E0],"parents":[2147483647,0,0],"right_children":[2,-1,-1],"split_conditions":[1.51E2,-5.7198014E-2,6.763163E-2],"split_indices":[2,0,0],"split_type":[0,0,0],"sum_hessian":[4.841429E1,2.8851229E1,1.9563063E1],"tree_param":{"num_deleted":"0","num_feature":"7","num_nodes":"3","size_leaf_vector":"1"}},{"base_weights":[-8.4891416E-2,2.4089867E-1,-5.2489704E-1,4.297583E-1,-4.993809E-2,-2.0712669E-1,-5.5443473E-2,5.1573133E-1,1.6034321E-1,-3.6400665E-2,5.5176923E-3,3.1902814E-1,6.8024E-2,-4.9011584E-2,6.3120954E-2,6.292424E-2,-2.8710693E-2],"categories":[],"categories_nodes":[],"categories_segments":[],"categories_sizes":[],"default_left":[0,0,0,0,0,0,0,0,0,0,0,0,0,0,0,0,0],"id":32,"left_children":[1,3,5,7,-1,9,-1,11,13,-1,-1,15,-1,-1,-1,-1,-1],"loss_changes":[7.504383E0,4.444905E0,9.363508E-2,4.8814154E-1,0E0,1.6350658E-1,0E0,3.7295294E-1,2.5798423E0,0E0,0E0,2.0960655E0,0E0,0E0,0E0,0E0,0E0],"parents":[2147483647,0,0,1,1,2,2,3,3,5,5,7,7,8,8,11,11],"right_children":[2,4,6,8,-1,10,-1,12,14,-1,-1,16,-1,-1,-1,-1,-1],"split_conditions":[1.3910953E1,1.49E2,1.4944956E1,1.7E1,-4.993809E-2,1.4544899E1,-5.5443473E-2,1E1,2E1,-3.6400665E-2,5.5176923E-3,7E0,6.8024E-2,-4.9011584E-2,6.3120954E-2,6.292424E-2,-2.8710693E-2],"split_indices":[3,2,3,4,0,3,0,4,4,0,0,4,0,0,0,0,0],"split_type":[0,0,0,0,0,0,0,0,0,0,0,0,0,0,0,0,0],"sum_hessian":[5.046818E1,2.9257662E1,2.1210522E1,2.3644863E1,5.6127977E0,2.4853263E0,1.8725195E1,1.7231771E1,6.413092E0,1.3125682E0,1.1727581E0,9.186609E0,8.045162E0,2.6758153E0,3.737277E0,6.0514245E0,3.135185E0],"tree_param":{"num_deleted":"0","num_feature":"7","num_nodes":"17","size_leaf_vector":"1"}},{"base_weights":[1.2921569E-1,3.0780238E-1,-5.2703857E-2,-6.245263E-2,6.470377E-2,5.5260345E-2,-4.9452387E-2,-4.4012472E-2,1.8249872E-1,6.205547E-2,-2.0396565E-3],"categories":[],"categories_nodes":[],"categories_segments":[],"categories_sizes":[],"default_left":[0,0,0,0,0,0,0,0,0,0,0],"id":33,"left_children":[1,3,-1,5,-1,7,-1,-1,9,-1,-1],"loss_changes":[6.404361E0,5.378451E0,0E0,1.10722E0,0E0,1.1887989E0,0E0,0E0,1.3190958E0,0E0,0E0],"parents":[2147483647,0,0,1,1,3,3,5,5,8,8],"right_children":[2,4,-1,6,-1,8,-1,-1,10,-1,-1],"split_conditions":[1.51E2,1.4944956E1,-5.2703857E-2,5E0,6.470377E-2,7E0,-4.9452387E-2,-4.4012472E-2,1E1,6.205547E-2,-2.0396565E-3],"split_indices":[2,3,0,5,0,4,0,0,4,0,0],"split_type":[0,0,0,0,0,0,0,0,0,0,0],"sum_hessian":[5.2261337E1,4.1499134E1,1.0762202E1,2.0232487E1,2.1266647E1,1.6585938E1,3.6465497E0,2.886948E0,1.369899E1,3.6848373E0,1.0014153E1],"tree_param":{"num_deleted":"0","num_feature":"7","num_nodes":"11","size_leaf_vector":"1"}},{"base_weights":[-6.2854536E-2,-5.625182E-2,6.5243885E-2],"categories":[],"categories_nodes":[],"categories_segments":[],"categories_sizes":[],"default_left":[0,0,0],"id":34,"left_children":[1,-1,-1],"loss_changes":[1.6983562E1,0E0,0E0],"parents":[2147483647,0,0],"right_children":[2,-1,-1],"split_conditions":[1.51E2,-5.625182E-2,6.5243885E-2],"split_indices":[2,0,0],"split_type":[0,0,0],"sum_hessian":[4.5492085E1,2.6908737E1,1.8583345E1],"tree_param":{"num_deleted":"0","num_feature":"7","num_nodes":"3","size_leaf_vector":"1"}},{"base_weights":[-8.1213534E-2,2.3185489E-1,-5.135872E-1,4.110609E-1,-4.8717167E-2,-1.9658218E-1,-5.44482E-2,4.9362656E-1,1.5199108E-1,5.8209132E-3,-3.5219938E-2,3.0480826E-1,6.501455E-2,-4.7378235E-2,6.0146075E-2,6.0362715E-2,-2.7086148E-2],"categories":[],"categories_nodes":[],"categories_segments":[],"categories_sizes":[],"default_left":[0,0,0,0,0,0,0,0,0,0,0,0,0,0,0,0,0],"id":35,"left_children":[1,3,5,7,-1,9,-1,11,13,-1,-1,15,-1,-1,-1,-1,-1],"loss_changes":[6.719338E0,3.9332607E0,9.656906E-2,4.3263388E-1,0E0,1.5575507E-1,0E0,3.2057142E-1,2.3046453E0,0E0,0E0,1.855854E0,0E0,0E0,0E0,0E0,0E0],"parents":[2147483647,0,0,1,1,2,2,3,3,5,5,7,7,8,8,11,11],"right_children":[2,4,6,8,-1,10,-1,12,14,-1,-1,16,-1,-1,-1,-1,-1],"split_conditions":[1.3910953E1,1.49E2,1.4944956E1,1.7E1,-4.8717167E-2,3E0,-5.44482E-2,1E1,2E1,5.8209132E-3,-3.5219938E-2,7E0,6.501455E-2,-4.7378235E-2,6.0146075E-2,6.0362715E-2,-2.7086148E-2],"split_indices":[3,2,3,4,0,5,0,4,4,0,0,4,0,0,0,0,0],"split_type":[0,0,0,0,0,0,0,0,0,0,0,0,0,0,0,0,0],"sum_hessian":[4.7759876E1,2.7970827E1,1.9789051E1,2.2733236E1,5.237591E0,2.411201E0,1.737785E1,1.655255E1,6.1806855E0,1.1516147E0,1.2595865E0,8.838069E0,7.7144814E0,2.561019E0,3.6196666E0,5.7860684E0,3.052E0],"tree_param":{"num_deleted":"0","num_feature":"7","num_nodes":"17","size_leaf_vector":"1"}},{"base_weights":[1.2407992E-1,2.943317E-1,-5.1693697E-2,-5.889887E-2,6.26129E-2,-2.2067922E-1,2.4643548E-1,3.6370743E-2,-5.2246988E-2,7.195114E-2,-4.624498E-2,-4.517981E-2,4.5584247E-2],"categories":[],"categories_nodes":[],"categories_segments":[],"categories_sizes":[],"default_left":[0,0,0,0,0,0,0,0,0,0,0,0,0],"id":36,"left_children":[1,3,-1,5,-1,7,9,11,-1,-1,-1,-1,-1],"loss_changes":[5.674305E0,4.797352E0,0E0,1.0713515E0,0E0,1.1038831E0,2.8823657E0,1.9438919E0,0E0,0E0,0E0,0E0,0E0],"parents":[2147483647,0,0,1,1,3,3,5,5,6,6,7,7],"right_children":[2,4,-1,6,-1,8,10,12,-1,-1,-1,-1,-1],"split_conditions":[1.51E2,1.4944956E1,-5.1693697E-2,1.7E1,6.26129E-2,1E1,2E1,7E0,-5.2246988E-2,7.195114E-2,-4.624498E-2,-4.517981E-2,4.5584247E-2],"split_indices":[2,3,0,4,0,4,4,4,0,0,0,0,0],"split_type":[0,0,0,0,0,0,0,0,0,0,0,0,0],"sum_hessian":[4.9599632E1,3.9618053E1,9.981578E0,1.9587612E1,2.0030443E1,1.2984875E1,6.6027374E0,7.4871683E0,5.4977064E0,3.9510238E0,2.6517134E0,3.4246254E0,4.062543E0],"tree_param":{"num_deleted":"0","num_feature":"7","num_nodes":"13","size_leaf_vector":"1"}},{"base_weights":[-6.263338E-2,-5.545451E-2,6.315068E-2],"categories":[],"categories_nodes":[],"categories_segments":[],"categories_sizes":[],"default_left":[0,0,0],"id":37,"left_children":[1,-1,-1],"loss_changes":[1.52671585E1,0E0,0E0],"parents":[2147483647,0,0],"right_children":[2,-1,-1],"split_conditions":[1.51E2,-5.545451E-2,6.315068E-2],"split_indices":[2,0,0],"split_type":[0,0,0],"sum_hessian":[4.2686367E1,2.5100012E1,1.7586355E1],"tree_param":{"num_deleted":"0","num_feature":"7","num_nodes":"3","size_leaf_vector":"1"}},{"base_weights":[-7.657597E-2,2.2422992E-1,-5.0280404E-1,3.938169E-1,-4.753816E-2,-1.86969E-1,-5.3521395E-2,4.7718883E-1,1.3744469E-1,6.4477073E-3,-3.4407366E-2,2.921874E-1,6.2864766E-2,-4.6825543E-2,5.796797E-2,5.8087E-2,-2.5605885E-2],"categories":[],"categories_nodes":[],"categories_segments":[],"categories_sizes":[],"default_left":[0,0,0,0,0,0,0,0,0,0,0,0,0,0,0,0,0],"id":38,"left_children":[1,3,5,7,-1,9,-1,11,13,-1,-1,15,-1,-1,-1,-1,-1],"loss_changes":[6.0434375E0,3.4867315E0,9.8994255E-2,4.2454553E-1,0E0,1.5439254E-1,0E0,2.8983593E-1,2.1549706E0,0E0,0E0,1.6484448E0,0E0,0E0,0E0,0E0,0E0],"parents":[2147483647,0,0,1,1,2,2,3,3,5,5,7,7,8,8,11,11],"right_children":[2,4,6,8,-1,10,-1,12,14,-1,-1,16,-1,-1,-1,-1,-1],"split_conditions":[1.3910953E1,1.49E2,1.4944956E1,1.7E1,-4.753816E-2,1.3E1,-5.3521395E-2,1E1,2E1,6.4477073E-3,-3.4407366E-2,7E0,6.2864766E-2,-4.6825543E-2,5.796797E-2,5.8087E-2,-2.5605885E-2],"split_indices":[3,2,3,4,0,4,0,4,4,0,0,4,0,0,0,0,0],"split_type":[0,0,0,0,0,0,0,0,0,0,0,0,0,0,0,0,0],"sum_hessian":[4.525696E1,2.6810009E1,1.8446955E1,2.1930992E1,4.879016E0,2.3467464E0,1.6100208E1,1.589926E1,6.031733E0,1.1291435E0,1.217603E0,8.475679E0,7.4235797E0,2.5205977E0,3.5111353E0,5.513176E0,2.962504E0],"tree_param":{"num_deleted":"0","num_feature":"7","num_nodes":"17","size_leaf_vector":"1"}},{"base_weights":[1.1972681E-1,2.832429E-1,-5.0733484E-2,-5.61624E-2,6.076715E-2,5.6251556E-2,-4.7836933E-2,-4.153027E-2,1.7237398E-1,5.756938E-2,-1.6620121E-3],"categories":[],"categories_nodes":[],"categories_segments":[],"categories_sizes":[],"default_left":[0,0,0,0,0,0,0,0,0,0,0],"id":39,"left_children":[1,3,-1,5,-1,7,-1,-1,9,-1,-1],"loss_changes":[5.045228E0,4.279865E0,0E0,9.6473235E-1,0E0,9.750654E-1,0E0,0E0,1.0725971E0,0E0,0E0],"parents":[2147483647,0,0,1,1,3,3,5,5,8,8],"right_children":[2,4,-1,6,-1,8,-1,-1,10,-1,-1],"split_conditions":[1.51E2,1.4944956E1,-5.0733484E-2,5E0,6.076715E-2,7E0,-4.7836933E-2,-4.153027E-2,1E1,5.756938E-2,-1.6620121E-3],"split_indices":[2,3,0,5,0,4,0,0,4,0,0],"split_type":[0,0,0,0,0,0,0,0,0,0,0],"sum_hessian":[4.6803623E1,3.755807E1,9.245553E0,1.8759478E1,1.8798592E1,1.5499464E1,3.2600145E0,2.5535386E0,1.2945925E1,3.4778922E0,9.468033E0],"tree_param":{"num_deleted":"0","num_feature":"7","num_nodes":"11","size_leaf_vector":"1"}},{"base_weights":[-6.1551087E-2,-5.4641724E-2,6.1300423E-2],"categories":[],"categories_nodes":[],"categories_segments":[],"categories_sizes":[],"default_left":[0,0,0],"id":40,"left_children":[1,-1,-1],"loss_changes":[1.3723115E1,0E0,0E0],"parents":[2147483647,0,0],"right_children":[2,-1,-1],"split_conditions":[1.51E2,-5.4641724E-2,6.1300423E-2],"split_indices":[2,0,0],"split_type":[0,0,0],"sum_hessian":[3.993374E1,2.3344103E1,1.6589638E1],"tree_param":{"num_deleted":"0","num_feature":"7","num_nodes":"3","size_leaf_vector":"1"}},{"base_weights":[-7.336373E-2,2.1679918E-1,-4.9256787E-1,3.7875614E-1,-4.640782E-2,-1.7729405E-1,-5.2652307E-2,4.5924297E-1,1.308432E-1,6.3970014E-3,-3.3151772E-2,-1.0601598E-3,4.9365172E-1,-4.5301925E-2,5.5540293E-2,2.8298318E-2,5.5360373E-2],"categories":[],"categories_nodes":[],"categories_segments":[],"categories_sizes":[],"default_left":[0,0,0,0,0,0,0,0,0,0,0,0,0,0,0,0,0],"id":41,"left_children":[1,3,5,7,-1,9,-1,11,13,-1,-1,-1,15,-1,-1,-1,-1],"loss_changes":[5.418803E0,3.0982118E0,1.0115242E-1,3.7809443E-1,0E0,1.4303654E-1,0E0,2.6680255E-1,1.9324021E0,0E0,0E0,0E0,3.4007072E-2,0E0,0E0,0E0,0E0],"parents":[2147483647,0,0,1,1,2,2,3,3,5,5,7,7,8,8,12,12],"right_children":[2,4,6,8,-1,10,-1,12,14,-1,-1,-1,16,-1,-1,-1,-1],"split_conditions":[1.3910953E1,1.49E2,1.4944956E1,1.7E1,-4.640782E-2,3E0,-5.2652307E-2,2.7E1,2E1,6.3970014E-3,-3.3151772E-2,-1.0601598E-3,9.157722E1,-4.5301925E-2,5.5540293E-2,2.8298318E-2,5.5360373E-2],"split_indices":[3,2,3,4,0,5,0,2,4,0,0,0,1,0,0,0,0],"split_type":[0,0,0,0,0,0,0,0,0,0,0,0,0,0,0,0,0],"sum_hessian":[4.2670864E1,2.55019E1,1.7168964E1,2.0959978E1,4.5419235E0,2.2742224E0,1.4894742E1,1.5179424E1,5.780553E0,1.1150601E0,1.1591622E0,1.0830119E0,1.4096413E1,2.405471E0,3.3750818E0,4.3900695E0,9.706343E0],"tree_param":{"num_deleted":"0","num_feature":"7","num_nodes":"17","size_leaf_vector":"1"}},{"base_weights":[1.154272E-1,2.7159825E-1,-4.9813755E-2,-5.184622E-2,5.9124704E-2,-2.1078773E-1,2.3763113E-1,3.988667E-2,-5.0517734E-2,6.66321E-2,-4.3845594E-2,-4.2925414E-2,4.1885998E-2],"categories":[],"categories_nodes":[],"categories_segments":[],"categories_sizes":[],"default_left":[0,0,0,0,0,0,0,0,0,0,0,0,0],"id":42,"left_children":[1,3,-1,5,-1,7,9,11,-1,-1,-1,-1,-1],"loss_changes":[4.481046E0,3.8351865E0,0E0,9.339395E-1,0E0,9.7440135E-1,2.401842E0,1.5862801E0,0E0,0E0,0E0,0E0,0E0],"parents":[2147483647,0,0,1,1,3,3,5,5,6,6,7,7],"right_children":[2,4,-1,6,-1,8,10,12,-1,-1,-1,-1,-1],"split_conditions":[1.51E2,1.4944956E1,-4.9813755E-2,1.7E1,5.9124704E-2,1E1,2E1,7E0,-5.0517734E-2,6.66321E-2,-4.3845594E-2,-4.2925414E-2,4.1885998E-2],"split_indices":[2,3,0,4,0,4,4,4,0,0,0,0,0],"split_type":[0,0,0,0,0,0,0,0,0,0,0,0,0],"sum_hessian":[4.43528E1,3.5798363E1,8.554438E0,1.8209965E1,1.7588398E1,1.1930947E1,6.2790165E0,6.91084E0,5.0201077E0,3.851391E0,2.4276257E0,3.0287707E0,3.882069E0],"tree_param":{"num_deleted":"0","num_feature":"7","num_nodes":"13","size_leaf_vector":"1"}},{"base_weights":[-6.1898593E-2,-5.3969134E-2,5.9652176E-2],"categories":[],"categories_nodes":[],"categories_segments":[],"categories_sizes":[],"default_left":[0,0,0],"id":43,"left_children":[1,-1,-1],"loss_changes":[1.2390422E1,0E0,0E0],"parents":[2147483647,0,0],"right_children":[2,-1,-1],"split_conditions":[1.51E2,-5.3969134E-2,5.9652176E-2],"split_indices":[2,0,0],"split_type":[0,0,0],"sum_hessian":[3.736277E1,2.1755722E1,1.5607047E1],"tree_param":{"num_deleted":"0","num_feature":"7","num_nodes":"3","size_leaf_vector":"1"}},{"base_weights":[-6.8993896E-2,2.0923144E-1,-4.8261237E-1,3.6206532E-1,-4.5302432E-2,-1.6833541E-1,-5.1831234E-2,4.4216445E-1,1.1818455E-1,6.970943E-3,-3.2395367E-2,2.6085156E-1,5.9084117E-2,-4.4767387E-2,5.375427E-2,5.4252803E-2,-2.4157612E-2],"categories":[],"categories_nodes":[],"categories_segments":[],"categories_sizes":[],"default_left":[0,0,0,0,0,0,0,0,0,0,0,0,0,0,0,0,0],"id":44,"left_children":[1,3,5,7,-1,9,-1,11,13,-1,-1,15,-1,-1,-1,-1,-1],"loss_changes":[4.871918E0,2.743306E0,1.03200674E-1,3.6306357E-1,0E0,1.415878E-1,0E0,2.6747346E-1,1.8118333E0,0E0,0E0,1.3816743E0,0E0,0E0,0E0,0E0,0E0],"parents":[2147483647,0,0,1,1,2,2,3,3,5,5,7,7,8,8,11,11],"right_children":[2,4,6,8,-1,10,-1,12,14,-1,-1,16,-1,-1,-1,-1,-1],"split_conditions":[1.3910953E1,1.49E2,1.4944956E1,1.7E1,-4.5302432E-2,1.3E1,-5.1831234E-2,1E1,2E1,6.970943E-3,-3.2395367E-2,7E0,5.9084117E-2,-4.4767387E-2,5.375427E-2,5.4252803E-2,-2.4157612E-2],"split_indices":[3,2,3,4,0,4,0,4,4,0,0,4,0,0,0,0,0],"split_type":[0,0,0,0,0,0,0,0,0,0,0,0,0,0,0,0,0],"sum_hessian":[4.045791E1,2.4483164E1,1.5974745E1,2.0260725E1,4.222439E0,2.2125256E0,1.3762219E1,1.4639542E1,5.6211843E0,1.0928589E0,1.1196667E0,7.8368735E0,6.8026676E0,2.3639205E0,3.2572637E0,4.970464E0,2.8664093E0],"tree_param":{"num_deleted":"0","num_feature":"7","num_nodes":"17","size_leaf_vector":"1"}},{"base_weights":[1.1154716E-1,2.6209202E-1,-4.8926204E-2,-4.9735002E-2,5.7650484E-2,5.803844E-2,-4.6310693E-2,-3.9275594E-2,1.6486104E-1,5.4534882E-2,-1.6196397E-3],"categories":[],"categories_nodes":[],"categories_segments":[],"categories_sizes":[],"default_left":[0,0,0,0,0,0,0,0,0,0,0],"id":45,"left_children":[1,3,-1,5,-1,7,-1,-1,9,-1,-1],"loss_changes":[3.9919622E0,3.4414766E0,0E0,8.4648174E-1,0E0,8.102503E-1,0E0,0E0,9.1955054E-1,0E0,0E0],"parents":[2147483647,0,0,1,1,3,3,5,5,8,8],"right_children":[2,4,-1,6,-1,8,-1,-1,10,-1,-1],"split_conditions":[1.51E2,1.4944956E1,-4.8926204E-2,5E0,5.7650484E-2,7E0,-4.6310693E-2,-3.9275594E-2,1E1,5.4534882E-2,-1.6196397E-3],"split_indices":[2,3,0,5,0,4,0,0,4,0,0],"split_type":[0,0,0,0,0,0,0,0,0,0,0],"sum_hessian":[4.1717342E1,3.3809464E1,7.907876E0,1.7397177E1,1.6412287E1,1.4481254E1,2.9159238E0,2.2613943E0,1.2219859E1,3.2912846E0,8.928575E0],"tree_param":{"num_deleted":"0","num_feature":"7","num_nodes":"11","size_leaf_vector":"1"}},{"base_weights":[-6.089826E-2,-5.3254373E-2,5.8171876E-2],"categories":[],"categories_nodes":[],"categories_segments":[],"categories_sizes":[],"default_left":[0,0,0],"id":46,"left_children":[1,-1,-1],"loss_changes":[1.1173062E1,0E0,0E0],"parents":[2147483647,0,0],"right_children":[2,-1,-1],"split_conditions":[1.51E2,-5.3254373E-2,5.8171876E-2],"split_indices":[2,0,0],"split_type":[0,0,0],"sum_hessian":[3.484205E1,2.0192879E1,1.4649171E1],"tree_param":{"num_deleted":"0","num_feature":"7","num_nodes":"3","size_leaf_vector":"1"}},{"base_weights":[-6.611769E-2,2.0296684E-1,-4.7310486E-1,3.496042E-1,-4.423142E-2,-1.5951902E-1,-5.104963E-2,4.2712688E-1,1.1291282E-1,-3.1341307E-2,7.139726E-3,2.5107056E-1,5.7065517E-2,-4.3340757E-2,5.171416E-2,5.2517224E-2,-2.2715269E-2],"categories":[],"categories_nodes":[],"categories_segments":[],"categories_sizes":[],"default_left":[0,0,0,0,0,0,0,0,0,0,0,0,0,0,0,0,0],"id":47,"left_children":[1,3,5,7,-1,9,-1,11,13,-1,-1,15,-1,-1,-1,-1,-1],"loss_changes":[4.3731837E0,2.445529E0,1.0435438E-1,3.2400632E-1,0E0,1.3405216E-1,0E0,2.3379016E-1,1.6296365E0,0E0,0E0,1.2318141E0,0E0,0E0,0E0,0E0,0E0],"parents":[2147483647,0,0,1,1,2,2,3,3,5,5,7,7,8,8,11,11],"right_children":[2,4,6,8,-1,10,-1,12,14,-1,-1,16,-1,-1,-1,-1,-1],"split_conditions":[1.3910953E1,1.49E2,1.4944956E1,1.7E1,-4.423142E-2,1.4544899E1,-5.104963E-2,1E1,2E1,-3.1341307E-2,7.139726E-3,7E0,5.7065517E-2,-4.3340757E-2,5.171416E-2,5.2517224E-2,-2.2715269E-2],"split_indices":[3,2,3,4,0,3,0,4,4,0,0,4,0,0,0,0,0],"split_type":[0,0,0,0,0,0,0,0,0,0,0,0,0,0,0,0,0],"sum_hessian":[3.8055836E1,2.3210938E1,1.4844899E1,1.92864E1,3.9245377E0,2.1425395E0,1.2702359E1,1.3922001E1,5.3643985E0,1.0713083E0,1.0712312E0,7.487218E0,6.434783E0,2.2505572E0,3.1138413E0,4.6969237E0,2.7902942E0],"tree_param":{"num_deleted":"0","num_feature":"7","num_nodes":"17","size_leaf_vector":"1"}},{"base_weights":[1.0736409E-1,2.5177458E-1,-4.8063528E-2,-4.7316063E-2,5.6316804E-2,-2.0507285E-1,2.2966562E-1,3.629438E-2,-4.8737478E-2,6.2178392E-2,-4.1630093E-2,-4.0732972E-2,3.773455E-2],"categories":[],"categories_nodes":[],"categories_segments":[],"categories_sizes":[],"default_left":[0,0,0,0,0,0,0,0,0,0,0,0,0],"id":48,"left_children":[1,3,-1,5,-1,7,9,11,-1,-1,-1,-1,-1],"loss_changes":[3.5495439E0,3.1067958E0,0E0,8.245195E-1,0E0,8.2606816E-1,2.0136592E0,1.2621579E0,0E0,0E0,0E0,0E0,0E0],"parents":[2147483647,0,0,1,1,3,3,5,5,6,6,7,7],"right_children":[2,4,-1,6,-1,8,10,12,-1,-1,-1,-1,-1],"split_conditions":[1.51E2,1.4944956E1,-4.8063528E-2,1.7E1,5.6316804E-2,1E1,2E1,7E0,-4.8737478E-2,6.2178392E-2,-4.1630093E-2,-4.0732972E-2,3.773455E-2],"split_indices":[2,3,0,4,0,4,4,4,0,0,0,0,0],"split_type":[0,0,0,0,0,0,0,0,0,0,0,0,0],"sum_hessian":[3.937686E1,3.2071926E1,7.3049364E0,1.6791698E1,1.5280228E1,1.0863777E1,5.9279213E0,6.326271E0,4.537506E0,3.7120488E0,2.2158725E0,2.6651833E0,3.6610875E0],"tree_param":{"num_deleted":"0","num_feature":"7","num_nodes":"13","size_leaf_vector":"1"}},{"base_weights":[-6.0999744E-2,-5.2651264E-2,5.6831993E-2],"categories":[],"categories_nodes":[],"categories_segments":[],"categories_sizes":[],"default_left":[0,0,0],"id":49,"left_children":[1,-1,-1],"loss_changes":[1.01126585E1,0E0,0E0],"parents":[2147483647,0,0],"right_children":[2,-1,-1],"split_conditions":[1.51E2,-5.2651264E-2,5.6831993E-2],"split_indices":[2,0,0],"split_type":[0,0,0],"sum_hessian":[3.2497925E1,1.8774004E1,1.3723921E1],"tree_param":{"num_deleted":"0","num_feature":"7","num_nodes":"3","size_leaf_vector":"1"}},{"base_weights":[-6.206645E-2,1.9760862E-1,-4.636678E-1,3.374898E-1,-4.3172993E-2,-1.5119834E-1,-5.0299764E-2,4.1630137E-1,1.0170029E-1,-3.0505184E-2,7.4059265E-3,2.4242792E-1,5.5617996E-2,-4.2828906E-2,5.0204653E-2,5.0922062E-2,-2.1397207E-2],"categories":[],"categories_nodes":[],"categories_segments":[],"categories_sizes":[],"default_left":[0,0,0,0,0,0,0,0,0,0,0,0,0,0,0,0,0],"id":50,"left_children":[1,3,5,7,-1,9,-1,11,13,-1,-1,15,-1,-1,-1,-1,-1],"loss_changes":[3.942137E0,2.181438E0,1.0580468E-1,3.1967306E-1,0E0,1.294778E-1,0E0,2.1240878E-1,1.5312666E0,0E0,0E0,1.0998617E0,0E0,0E0,0E0,0E0,0E0],"parents":[2147483647,0,0,1,1,2,2,3,3,5,5,7,7,8,8,11,11],"right_children":[2,4,6,8,-1,10,-1,12,14,-1,-1,16,-1,-1,-1,-1,-1],"split_conditions":[1.3910953E1,1.49E2,1.4944956E1,1.7E1,-4.3172993E-2,1.4544899E1,-5.0299764E-2,1E1,2E1,-3.0505184E-2,7.4059265E-3,7E0,5.5617996E-2,-4.2828906E-2,5.0204653E-2,5.0922062E-2,-2.1397207E-2],"split_indices":[3,2,3,4,0,3,0,4,4,0,0,4,0,0,0,0,0],"split_type":[0,0,0,0,0,0,0,0,0,0,0,0,0,0,0,0,0],"sum_hessian":[3.592267E1,2.2124763E1,1.3797904E1,1.8480825E1,3.6439393E0,2.084136E0,1.1713768E1,1.3277365E1,5.2034607E0,1.0278604E0,1.0562756E0,7.1378837E0,6.1394806E0,2.2091417E0,2.994319E0,4.431612E0,2.7062714E0],"tree_param":{"num_deleted":"0","num_feature":"7","num_nodes":"17","size_leaf_vector":"1"}},{"base_weights":[1.03793696E-1,2.433811E-1,-4.7219273E-2,-4.5728013E-2,5.5099767E-2,5.8877602E-2,-4.5129452E-2,-3.7059296E-2,1.5765157E-1,5.1344432E-2,-1.3998406E-3],"categories":[],"categories_nodes":[],"categories_segments":[],"categories_sizes":[],"default_left":[0,0,0,0,0,0,0,0,0,0,0],"id":51,"left_children":[1,3,-1,5,-1,7,-1,-1,9,-1,-1],"loss_changes":[3.1666114E0,2.8010168E0,0E0,7.483535E-1,0E0,6.696833E-1,0E0,0E0,7.6549757E-1,0E0,0E0],"parents":[2147483647,0,0,1,1,3,3,5,5,8,8],"right_children":[2,4,-1,6,-1,8,-1,-1,10,-1,-1],"split_conditions":[1.51E2,1.4944956E1,-4.7219273E-2,5E0,5.5099767E-2,7E0,-4.5129452E-2,-3.7059296E-2,1E1,5.1344432E-2,-1.3998406E-3],"split_indices":[2,3,0,5,0,4,0,0,4,0,0],"split_type":[0,0,0,0,0,0,0,0,0,0,0],"sum_hessian":[3.6956116E1,3.0211874E1,6.744242E0,1.6013325E1,1.419855E1,1.3409508E1,2.6038167E0,1.9928107E0,1.1416697E1,3.0674071E0,8.34929E0],"tree_param":{"num_deleted":"0","num_feature":"7","num_nodes":"11","size_leaf_vector":"1"}},{"base_weights":[-6.0029984E-2,-5.2007925E-2,5.5610266E-2],"categories":[],"categories_nodes":[],"categories_segments":[],"categories_sizes":[],"default_left":[0,0,0],"id":52,"left_children":[1,-1,-1],"loss_changes":[9.143686E0,0E0,0E0],"parents":[2147483647,0,0],"right_children":[2,-1,-1],"split_conditions":[1.51E2,-5.2007925E-2,5.5610266E-2],"split_indices":[2,0,0],"split_type":[0,0,0],"sum_hessian":[3.0238052E1,1.7401058E1,1.2836994E1],"tree_param":{"num_deleted":"0","num_feature":"7","num_nodes":"3","size_leaf_vector":"1"}},{"base_weights":[-5.9428457E-2,1.922278E-1,-4.5462254E-1,3.26954E-1,-4.2140048E-2,-1.4318767E-2,-4.9574807E-2,2.2747411E-1,5.521677E-2,4.7206175E-2,1.1351506E-1,-4.247165E-2,2.8830534E-2],"categories":[],"categories_nodes":[],"categories_segments":[],"categories_sizes":[],"default_left":[0,0,0,0,0,0,0,0,0,0,0,0,0],"id":53,"left_children":[1,3,5,7,-1,-1,-1,9,-1,-1,11,-1,-1],"loss_changes":[3.542122E0,1.9504095E0,1.05914116E-1,2.898035E-1,0E0,0E0,0E0,3.5228044E-1,0E0,0E0,1.1808015E0,0E0,0E0],"parents":[2147483647,0,0,1,1,2,2,3,3,7,7,10,10],"right_children":[2,4,6,8,-1,-1,-1,10,-1,-1,12,-1,-1],"split_conditions":[1.3910953E1,1.49E2,1.4944956E1,5E0,-4.2140048E-2,-1.4318767E-2,-4.9574807E-2,7E0,5.521677E-2,4.7206175E-2,1E1,-4.247165E-2,2.8830534E-2],"split_indices":[3,2,3,5,0,0,0,4,0,0,4,0,0],"split_type":[0,0,0,0,0,0,0,0,0,0,0,0,0],"sum_hessian":[3.37373E1,2.0925627E1,1.2811676E1,1.754146E1,3.3841662E0,2.017244E0,1.0794432E1,1.3561293E1,3.9801664E0,3.3115058E0,1.0249787E1,2.1621175E0,8.08767E0],"tree_param":{"num_deleted":"0","num_feature":"7","num_nodes":"13","size_leaf_vector":"1"}},{"base_weights":[9.987505E-2,2.3364854E-1,-4.6388064E-2,-4.3027587E-2,5.398015E-2,-2.0369521E-1,2.2819276E-1,3.1402405E-2,-4.731473E-2,5.921782E-2,-3.9748922E-2,-3.8649075E-2,3.406908E-2],"categories":[],"categories_nodes":[],"categories_segments":[],"categories_sizes":[],"default_left":[0,0,0,0,0,0,0,0,0,0,0,0,0],"id":54,"left_children":[1,3,-1,5,-1,7,9,11,-1,-1,-1,-1,-1],"loss_changes":[2.817515E0,2.5388355E0,0E0,7.666407E-1,0E0,7.0577216E-1,1.7429392E0,1.0057157E0,0E0,0E0,0E0,0E0,0E0],"parents":[2147483647,0,0,1,1,3,3,5,5,6,6,7,7],"right_children":[2,4,-1,6,-1,8,10,12,-1,-1,-1,-1,-1],"split_conditions":[1.51E2,1.4944956E1,-4.6388064E-2,1.7E1,5.398015E-2,1E1,2E1,7E0,-4.731473E-2,5.921782E-2,-3.9748922E-2,-3.8649075E-2,3.406908E-2],"split_indices":[2,3,0,4,0,4,4,4,0,0,0,0,0],"split_type":[0,0,0,0,0,0,0,0,0,0,0,0,0],"sum_hessian":[3.4922688E1,2.86984E1,6.2242885E0,1.552638E1,1.3172022E1,9.906724E0,5.6196547E0,5.7624397E0,4.1442847E0,3.58668E0,2.0329747E0,2.3447425E0,3.4176974E0],"tree_param":{"num_deleted":"0","num_feature":"7","num_nodes":"13","size_leaf_vector":"1"}},{"base_weights":[-6.0441993E-2,-5.1453102E-2,5.4481156E-2],"categories":[],"categories_nodes":[],"categories_segments":[],"categories_sizes":[],"default_left":[0,0,0],"id":55,"left_children":[1,-1,-1],"loss_changes":[8.29885E0,0E0,0E0],"parents":[2147483647,0,0],"right_children":[2,-1,-1],"split_conditions":[1.51E2,-5.1453102E-2,5.4481156E-2],"split_indices":[2,0,0],"split_type":[0,0,0],"sum_hessian":[2.8175364E1,1.6183586E1,1.1991777E1],"tree_param":{"num_deleted":"0","num_feature":"7","num_nodes":"3","size_leaf_vector":"1"}},{"base_weights":[-5.5332858E-2,1.8611053E-1,-4.4506413E-1,3.1369498E-1,-4.1110884E-2,-1.3402668E-2,-4.8868578E-2,3.9739063E-1,7.588107E-2,2.2796802E-1,5.2963674E-2,-4.2127557E-2,4.7352336E-2,4.8038136E-2,-1.8831115E-2],"categories":[],"categories_nodes":[],"categories_segments":[],"categories_sizes":[],"default_left":[0,0,0,0,0,0,0,0,0,0,0,0,0,0,0],"id":56,"left_children":[1,3,5,7,-1,-1,-1,9,11,13,-1,-1,-1,-1,-1],"loss_changes":[3.1853032E0,1.7339162E0,1.0962653E-1,3.265841E-1,0E0,0E0,0E0,1.7100692E-1,1.3662016E0,8.7473285E-1,0E0,0E0,0E0,0E0,0E0],"parents":[2147483647,0,0,1,1,2,2,3,3,7,7,8,8,9,9],"right_children":[2,4,6,8,-1,-1,-1,10,12,14,-1,-1,-1,-1,-1],"split_conditions":[1.3910953E1,1.49E2,1.4944956E1,1.7E1,-4.1110884E-2,-1.3402668E-2,-4.8868578E-2,1E1,2E1,7E0,5.2963674E-2,-4.2127557E-2,4.7352336E-2,4.8038136E-2,-1.8831115E-2],"split_indices":[3,2,3,4,0,0,0,4,4,4,0,0,0,0,0],"split_type":[0,0,0,0,0,0,0,0,0,0,0,0,0,0,0],"sum_hessian":[3.1970634E1,2.0063507E1,1.1907128E1,1.6922977E1,3.140529E0,1.9654284E0,9.9417E0,1.2021238E1,4.901739E0,6.4639645E0,5.557274E0,2.1518862E0,2.749853E0,3.9281306E0,2.5358338E0],"tree_param":{"num_deleted":"0","num_feature":"7","num_nodes":"15","size_leaf_vector":"1"}},{"base_weights":[9.64507E-2,2.2595961E-1,-4.55649E-2,-4.194646E-2,5.2941013E-2,-1.9878417E-1,2.2039008E-1,2.978139E-2,-4.6301957E-2,5.6808203E-2,-3.855746E-2,-3.7628822E-2,3.232155E-2],"categories":[],"categories_nodes":[],"categories_segments":[],"categories_sizes":[],"default_left":[0,0,0,0,0,0,0,0,0,0,0,0,0],"id":57,"left_children":[1,3,-1,5,-1,7,9,11,-1,-1,-1,-1,-1],"loss_changes":[2.5157075E0,2.298572E0,0E0,6.938069E-1,0E0,6.4267224E-1,1.5643268E0,8.988467E-1,0E0,0E0,0E0,0E0,0E0],"parents":[2147483647,0,0,1,1,3,3,5,5,6,6,7,7],"right_children":[2,4,-1,6,-1,8,10,12,-1,-1,-1,-1,-1],"split_conditions":[1.51E2,1.4944956E1,-4.55649E-2,1.7E1,5.2941013E-2,1E1,2E1,7E0,-4.6301957E-2,5.6808203E-2,-3.855746E-2,-3.7628822E-2,3.232155E-2],"split_indices":[2,3,0,4,0,4,4,4,0,0,0,0,0],"split_type":[0,0,0,0,0,0,0,0,0,0,0,0,0],"sum_hessian":[3.2743877E1,2.700087E1,5.743008E0,1.4797995E1,1.2202875E1,9.412808E0,5.3851857E0,5.5228205E0,3.8899882E0,3.461534E0,1.9236517E0,2.1983154E0,3.324505E0],"tree_param":{"num_deleted":"0","num_feature":"7","num_nodes":"13","size_leaf_vector":"1"}},{"base_weights":[-5.956125E-2,-5.08642E-2,5.343535E-2],"categories":[],"categories_nodes":[],"categories_segments":[],"categories_sizes":[],"default_left":[0,0,0],"id":58,"left_children":[1,-1,-1],"loss_changes":[7.5214458E0,0E0,0E0],"parents":[2147483647,0,0],"right_children":[2,-1,-1],"split_conditions":[1.51E2,-5.08642E-2,5.343535E-2],"split_indices":[2,0,0],"split_type":[0,0,0],"sum_hessian":[2.6181192E1,1.499016E1,1.1191033E1],"tree_param":{"num_deleted":"0","num_feature":"7","num_nodes":"3","size_leaf_vector":"1"}},{"base_weights":[-5.2744713E-2,1.813947E-1,-4.3582255E-1,3.0462283E-1,-4.0101673E-2,-1.2529507E-2,-4.817563E-2,3.8584042E-1,7.290413E-2,2.2039016E-1,5.1444866E-2,-4.080509E-2,4.5788344E-2,4.670934E-2,-1.7621988E-2],"categories":[],"categories_nodes":[],"categories_segments":[],"categories_sizes":[],"default_left":[0,0,0,0,0,0,0,0,0,0,0,0,0,0,0],"id":59,"left_children":[1,3,5,7,-1,-1,-1,9,11,13,-1,-1,-1,-1,-1],"loss_changes":[2.8605647E0,1.5541985E0,1.1162877E-1,2.9250276E-1,0E0,0E0,0E0,1.5009737E-1,1.2338468E0,7.8337145E-1,0E0,0E0,0E0,0E0,0E0],"parents":[2147483647,0,0,1,1,2,2,3,3,7,7,8,8,9,9],"right_children":[2,4,6,8,-1,-1,-1,10,12,14,-1,-1,-1,-1,-1],"split_conditions":[1.3910953E1,1.49E2,1.4944956E1,1.7E1,-4.0101673E-2,-1.2529507E-2,-4.817563E-2,1E1,2E1,7E0,5.1444866E-2,-4.080509E-2,4.5788344E-2,4.670934E-2,-1.7621988E-2],"split_indices":[3,2,3,4,0,0,0,4,4,4,0,0,0,0,0],"split_type":[0,0,0,0,0,0,0,0,0,0,0,0,0,0,0],"sum_hessian":[3.0011225E1,1.8953323E1,1.10579E1,1.6037111E1,2.9162118E0,1.9052825E0,9.152617E0,1.1382436E1,4.6546755E0,6.16501E0,5.217426E0,2.0427442E0,2.6119316E0,3.6912365E0,2.4737737E0],"tree_param":{"num_deleted":"0","num_feature":"7","num_nodes":"15","size_leaf_vector":"1"}},{"base_weights":[9.30676E-2,2.1854825E-1,-4.4745695E-2,-4.1124344E-2,5.1968582E-2,-1.9415875E-1,2.1307214E-1,2.8091704E-2,-4.532517E-2,5.4626565E-2,-3.7412163E-2,-3.6628406E-2,3.0662531E-2],"categories":[],"categories_nodes":[],"categories_segments":[],"categories_sizes":[],"default_left":[0,0,0,0,0,0,0,0,0,0,0,0,0],"id":60,"left_children":[1,3,-1,5,-1,7,9,11,-1,-1,-1,-1,-1],"loss_changes":[2.247028E0,2.0849504E0,0E0,6.28654E-1,0E0,5.855077E-1,1.4076333E0,8.0387944E-1,0E0,0E0,0E0,0E0,0E0],"parents":[2147483647,0,0,1,1,3,3,5,5,6,6,7,7],"right_children":[2,4,-1,6,-1,8,10,12,-1,-1,-1,-1,-1],"split_conditions":[1.51E2,1.4944956E1,-4.4745695E-2,1.7E1,5.1968582E-2,1E1,2E1,7E0,-4.532517E-2,5.4626565E-2,-3.7412163E-2,-3.6628406E-2,3.0662531E-2],"split_indices":[2,3,0,4,0,4,4,4,0,0,0,0,0],"split_type":[0,0,0,0,0,0,0,0,0,0,0,0,0],"sum_hessian":[3.0687805E1,2.5389423E1,5.2983813E0,1.4096968E1,1.1292456E1,8.946859E0,5.1501083E0,5.295739E0,3.6511195E0,3.330163E0,1.8199456E0,2.0616312E0,3.2341082E0],"tree_param":{"num_deleted":"0","num_feature":"7","num_nodes":"13","size_leaf_vector":"1"}},{"base_weights":[-5.8666024E-2,-5.029496E-2,5.245934E-2],"categories":[],"categories_nodes":[],"categories_segments":[],"categories_sizes":[],"default_left":[0,0,0],"id":61,"left_children":[1,-1,-1],"loss_changes":[6.82428E0,0E0,0E0],"parents":[2147483647,0,0],"right_children":[2,-1,-1],"split_conditions":[1.51E2,-5.029496E-2,5.245934E-2],"split_indices":[2,0,0],"split_type":[0,0,0],"sum_hessian":[2.4316908E1,1.3881051E1,1.0435858E1],"tree_param":{"num_deleted":"0","num_feature":"7","num_nodes":"3","size_leaf_vector":"1"}},{"base_weights":[-5.0188333E-2,1.7700285E-1,-4.2662773E-1,2.961883E-1,-3.910111E-2,-1.1697852E-2,-4.7491066E-2,1.9649224E-1,5.227027E-2,4.3103386E-2,8.957374E-2,-3.9702643E-2,2.5395958E-2],"categories":[],"categories_nodes":[],"categories_segments":[],"categories_sizes":[],"default_left":[0,0,0,0,0,0,0,0,0,0,0,0,0],"id":62,"left_children":[1,3,5,7,-1,-1,-1,9,-1,-1,11,-1,-1],"loss_changes":[2.5700254E0,1.395077E0,1.12957716E-1,2.6286054E-1,0E0,0E0,0E0,2.8345272E-1,0E0,0E0,9.074427E-1,0E0,0E0],"parents":[2147483647,0,0,1,1,2,2,3,3,7,7,10,10],"right_children":[2,4,6,8,-1,-1,-1,10,-1,-1,12,-1,-1],"split_conditions":[1.3910953E1,1.49E2,1.4944956E1,5E0,-3.910111E-2,-1.1697852E-2,-4.7491066E-2,7E0,5.227027E-2,4.3103386E-2,1E1,-3.9702643E-2,2.5395958E-2],"split_indices":[3,2,3,5,0,0,0,4,0,0,4,0,0],"split_type":[0,0,0,0,0,0,0,0,0,0,0,0,0],"sum_hessian":[2.816748E1,1.7896353E1,1.0271128E1,1.5188028E1,2.7083247E0,1.8472254E0,8.4239025E0,1.1843011E1,3.345018E0,2.7590969E0,9.083914E0,1.9364873E0,7.1474266E0],"tree_param":{"num_deleted":"0","num_feature":"7","num_nodes":"13","size_leaf_vector":"1"}},{"base_weights":[8.980838E-2,2.1110666E-1,-4.3927003E-2,-3.9638884E-2,5.105076E-2,-1.9297798E-1,2.1138246E-1,2.517536E-2,-4.4560254E-2,5.3289633E-2,-3.647527E-2,-3.5653707E-2,2.9078547E-2],"categories":[],"categories_nodes":[],"categories_segments":[],"categories_sizes":[],"default_left":[0,0,0,0,0,0,0,0,0,0,0,0,0],"id":63,"left_children":[1,3,-1,5,-1,7,9,11,-1,-1,-1,-1,-1],"loss_changes":[2.007204E0,1.8928039E0,0E0,5.9901404E-1,0E0,5.361891E-1,1.3014902E0,7.1788937E-1,0E0,0E0,0E0,0E0,0E0],"parents":[2147483647,0,0,1,1,3,3,5,5,6,6,7,7],"right_children":[2,4,-1,6,-1,8,10,12,-1,-1,-1,-1,-1],"split_conditions":[1.51E2,1.4944956E1,-4.3927003E-2,1.7E1,5.105076E-2,1E1,2E1,7E0,-4.4560254E-2,5.3289633E-2,-3.647527E-2,-3.5653707E-2,2.9078547E-2],"split_indices":[2,3,0,4,0,4,4,4,0,0,0,0,0],"split_type":[0,0,0,0,0,0,0,0,0,0,0,0,0],"sum_hessian":[2.8831434E1,2.3943142E1,4.888293E0,1.3502516E1,1.0440626E1,8.525718E0,4.9767976E0,5.0581284E0,3.4675896E0,3.2424111E0,1.7343867E0,1.9349905E0,3.1231377E0],"tree_param":{"num_deleted":"0","num_feature":"7","num_nodes":"13","size_leaf_vector":"1"}},{"base_weights":[-5.800827E-2,-4.973734E-2,5.1541694E-2],"categories":[],"categories_nodes":[],"categories_segments":[],"categories_sizes":[],"default_left":[0,0,0],"id":64,"left_children":[1,-1,-1],"loss_changes":[6.20061E0,0E0,0E0],"parents":[2147483647,0,0],"right_children":[2,-1,-1],"split_conditions":[1.51E2,-4.973734E-2,5.1541694E-2],"split_indices":[2,0,0],"split_type":[0,0,0],"sum_hessian":[2.2593647E1,1.2867242E1,9.726405E0],"tree_param":{"num_deleted":"0","num_feature":"7","num_nodes":"3","size_leaf_vector":"1"}},{"base_weights":[-4.7541525E-2,1.7150803E-1,-4.1745248E-1,2.8574663E-1,-3.810787E-2,-1.0906767E-2,-4.681059E-2,3.6783278E-1,5.724294E-2,2.0811749E-1,4.8943356E-2,-3.9318677E-2,4.311801E-2,4.4247065E-2,-1.530394E-2],"categories":[],"categories_nodes":[],"categories_segments":[],"categories_sizes":[],"default_left":[0,0,0,0,0,0,0,0,0,0,0,0,0,0,0],"id":65,"left_children":[1,3,5,7,-1,-1,-1,9,11,13,-1,-1,-1,-1,-1],"loss_changes":[2.3051686E0,1.2465467E0,1.1364043E-1,2.6978636E-1,0E0,0E0,0E0,1.1611664E-1,1.0592535E0,6.255843E-1,0E0,0E0,0E0,0E0,0E0],"parents":[2147483647,0,0,1,1,2,2,3,3,7,7,8,8,9,9],"right_children":[2,4,6,8,-1,-1,-1,10,12,14,-1,-1,-1,-1,-1],"split_conditions":[1.3910953E1,1.49E2,1.4944956E1,1.7E1,-3.810787E-2,-1.0906767E-2,-4.681059E-2,1E1,2E1,7E0,4.8943356E-2,-3.9318677E-2,4.311801E-2,4.4247065E-2,-1.530394E-2],"split_indices":[3,2,3,4,0,0,0,4,4,4,0,0,0,0,0],"split_type":[0,0,0,0,0,0,0,0,0,0,0,0,0,0,0],"sum_hessian":[2.6565153E1,1.7021759E1,9.543394E0,1.4505806E1,2.5159543E0,1.7912477E0,7.7521462E0,1.0223454E1,4.282351E0,5.591214E0,4.6322403E0,1.9191465E0,2.3632047E0,3.2543395E0,2.336875E0],"tree_param":{"num_deleted":"0","num_feature":"7","num_nodes":"15","size_leaf_vector":"1"}},{"base_weights":[8.647457E-2,2.0412464E-1,-4.3106038E-2,-3.9248426E-2,5.0177217E-2,6.14127E-2,-4.2811956E-2,-3.195283E-2,1.4529328E-1,2.3772534E-2,-3.1346392E-2],"categories":[],"categories_nodes":[],"categories_segments":[],"categories_sizes":[],"default_left":[0,0,0,0,0,0,0,0,0,0,0],"id":66,"left_children":[1,3,-1,5,-1,7,-1,-1,9,-1,-1],"loss_changes":[1.7938527E0,1.7224381E0,0E0,5.688064E-1,0E0,4.2616338E-1,0E0,0E0,5.166599E-1,0E0,0E0],"parents":[2147483647,0,0,1,1,3,3,5,5,8,8],"right_children":[2,4,-1,6,-1,8,-1,-1,10,-1,-1],"split_conditions":[1.51E2,1.4944956E1,-4.3106038E-2,5E0,5.0177217E-2,7E0,-4.2811956E-2,-3.195283E-2,2E1,2.3772534E-2,-3.1346392E-2],"split_indices":[2,3,0,5,0,4,0,0,4,0,0],"split_type":[0,0,0,0,0,0,0,0,0,0,0],"sum_hessian":[2.7016388E1,2.2505781E1,4.5106063E0,1.285938E1,9.646402E0,1.0884064E1,1.9753164E0,1.4571482E0,9.426915E0,8.247071E0,1.179844E0],"tree_param":{"num_deleted":"0","num_feature":"7","num_nodes":"11","size_leaf_vector":"1"}},{"base_weights":[-5.707608E-2,-4.9196463E-2,5.067266E-2],"categories":[],"categories_nodes":[],"categories_segments":[],"categories_sizes":[],"default_left":[0,0,0],"id":67,"left_children":[1,-1,-1],"loss_changes":[5.637536E0,0E0,0E0],"parents":[2147483647,0,0],"right_children":[2,-1,-1],"split_conditions":[1.51E2,-4.9196463E-2,5.067266E-2],"split_indices":[2,0,0],"split_type":[0,0,0],"sum_hessian":[2.0975672E1,1.191357E1,9.0621E0],"tree_param":{"num_deleted":"0","num_feature":"7","num_nodes":"3","size_leaf_vector":"1"}},{"base_weights":[-4.5042403E-2,1.6765092E-1,-4.082748E-1,2.7837953E-1,-3.712123E-2,-1.015355E-2,-4.6130426E-2,1.7721273E-1,5.0766546E-2,4.066135E-2,7.363545E-2,-3.8107034E-2,2.3359178E-2],"categories":[],"categories_nodes":[],"categories_segments":[],"categories_sizes":[],"default_left":[0,0,0,0,0,0,0,0,0,0,0,0,0],"id":68,"left_children":[1,3,5,7,-1,-1,-1,9,-1,-1,11,-1,-1],"loss_changes":[2.072532E0,1.1218255E0,1.1372626E-1,2.517419E-1,0E0,0E0,0E0,2.4942708E-1,0E0,0E0,7.6698613E-1,0E0,0E0],"parents":[2147483647,0,0,1,1,2,2,3,3,7,7,10,10],"right_children":[2,4,6,8,-1,-1,-1,10,-1,-1,12,-1,-1],"split_conditions":[1.3910953E1,1.49E2,1.4944956E1,5E0,-3.712123E-2,-1.015355E-2,-4.6130426E-2,7E0,5.0766546E-2,4.066135E-2,1E1,-3.8107034E-2,2.3359178E-2],"split_indices":[3,2,3,5,0,0,0,4,0,0,4,0,0],"split_type":[0,0,0,0,0,0,0,0,0,0,0,0,0],"sum_hessian":[2.494045E1,1.6069366E1,8.871084E0,1.3731198E1,2.3381684E0,1.737209E0,7.133876E0,1.0757573E1,2.9736252E0,2.4362087E0,8.321364E0,1.805774E0,6.5155907E0],"tree_param":{"num_deleted":"0","num_feature":"7","num_nodes":"13","size_leaf_vector":"1"}},{"base_weights":[8.186698E-2,1.9452552E-1,-4.228062E-2,-3.9322827E-2,4.9338996E-2,-1.9235337E-1,2.0896824E-1,2.4257243E-2,-4.3654464E-2,5.0787147E-2,-3.454617E-2,-3.3759948E-2,2.6675655E-2],"categories":[],"categories_nodes":[],"categories_segments":[],"categories_sizes":[],"default_left":[0,0,0,0,0,0,0,0,0,0,0,0,0],"id":69,"left_children":[1,3,-1,5,-1,7,9,11,-1,-1,-1,-1,-1],"loss_changes":[1.5926714E0,1.5851041E0,0E0,5.529395E-1,0E0,4.797423E-1,1.1076345E0,5.8563393E-1,0E0,0E0,0E0,0E0,0E0],"parents":[2147483647,0,0,1,1,3,3,5,5,6,6,7,7],"right_children":[2,4,-1,6,-1,8,10,12,-1,-1,-1,-1,-1],"split_conditions":[1.51E2,1.4944956E1,-4.228062E-2,1.7E1,4.9338996E-2,1E1,2E1,7E0,-4.3654464E-2,5.0787147E-2,-3.454617E-2,-3.3759948E-2,2.6675655E-2],"split_indices":[2,3,0,4,0,4,4,4,0,0,0,0,0],"split_type":[0,0,0,0,0,0,0,0,0,0,0,0,0],"sum_hessian":[2.556591E1,2.1402718E1,4.1631923E0,1.2494637E1,8.908081E0,7.86961E0,4.625027E0,4.6476026E0,3.222007E0,3.059546E0,1.5654812E0,1.7075038E0,2.940099E0],"tree_param":{"num_deleted":"0","num_feature":"7","num_nodes":"13","size_leaf_vector":"1"}},{"base_weights":[-5.703463E-2,-4.868984E-2,4.9843993E-2],"categories":[],"categories_nodes":[],"categories_segments":[],"categories_sizes":[],"default_left":[0,0,0],"id":70,"left_children":[1,-1,-1],"loss_changes":[5.1400228E0,0E0,0E0],"parents":[2147483647,0,0],"right_children":[2,-1,-1],"split_conditions":[1.51E2,-4.868984E-2,4.9843993E-2],"split_indices":[2,0,0],"split_type":[0,0,0],"sum_hessian":[1.9509953E1,1.1068137E1,8.441816E0],"tree_param":{"num_deleted":"0","num_feature":"7","num_nodes":"3","size_leaf_vector":"1"}},{"base_weights":[-4.072238E-2,1.6315089E-1,-3.9797693E-1,2.6857078E-1,-3.61437E-2,-9.143452E-3,-4.5447327E-2,3.531437E-1,3.91942E-2,1.9421674E-1,4.7142915E-2,-3.823441E-2,4.0718537E-2,4.198129E-2,-1.3668125E-2],"categories":[],"categories_nodes":[],"categories_segments":[],"categories_sizes":[],"default_left":[0,0,0,0,0,0,0,0,0,0,0,0,0,0,0],"id":71,"left_children":[1,3,5,7,-1,-1,-1,9,11,13,-1,-1,-1,-1,-1],"loss_changes":[1.8626041E0,1.005314E0,1.18784666E-1,2.625736E-1,0E0,0E0,0E0,1.0179734E-1,9.255979E-1,5.119533E-1,0E0,0E0,0E0,0E0,0E0],"parents":[2147483647,0,0,1,1,2,2,3,3,7,7,8,8,9,9],"right_children":[2,4,6,8,-1,-1,-1,10,12,14,-1,-1,-1,-1,-1],"split_conditions":[1.3910953E1,1.49E2,1.4944956E1,1.7E1,-3.61437E-2,-9.143452E-3,-4.5447327E-2,1E1,2E1,7E0,4.7142915E-2,-3.823441E-2,4.0718537E-2,4.198129E-2,-1.3668125E-2],"split_indices":[3,2,3,4,0,0,0,4,4,4,0,0,0,0,0],"split_type":[0,0,0,0,0,0,0,0,0,0,0,0,0,0,0],"sum_hessian":[2.3681574E1,1.5423319E1,8.258254E0,1.3248889E1,2.17443E0,1.692634E0,6.56562E0,9.285627E0,3.963262E0,5.0894427E0,4.1961846E0,1.8290547E0,2.1342075E0,2.8664656E0,2.222977E0],"tree_param":{"num_deleted":"0","num_feature":"7","num_nodes":"15","size_leaf_vector":"1"}},{"base_weights":[7.8601144E-2,1.8794344E-1,-4.1449115E-2,-3.9184384E-2,4.852831E-2,-1.8824401E-1,2.0234373E-1,2.2352379E-2,-4.275116E-2,4.9098007E-2,-3.35402E-2,-3.2832954E-2,2.5296656E-2],"categories":[],"categories_nodes":[],"categories_segments":[],"categories_sizes":[],"default_left":[0,0,0,0,0,0,0,0,0,0,0,0,0],"id":72,"left_children":[1,3,-1,5,-1,7,9,11,-1,-1,-1,-1,-1],"loss_changes":[1.4241517E0,1.4457095E0,0E0,5.0259316E-1,0E0,4.3767715E-1,1.0037216E0,5.253654E-1,0E0,0E0,0E0,0E0,0E0],"parents":[2147483647,0,0,1,1,3,3,5,5,6,6,7,7],"right_children":[2,4,-1,6,-1,8,10,12,-1,-1,-1,-1,-1],"split_conditions":[1.51E2,1.4944956E1,-4.1449115E-2,1.7E1,4.852831E-2,1E1,2E1,7E0,-4.275116E-2,4.9098007E-2,-3.35402E-2,-3.2832954E-2,2.5296656E-2],"split_indices":[2,3,0,4,0,4,4,4,0,0,0,0,0],"split_type":[0,0,0,0,0,0,0,0,0,0,0,0,0],"sum_hessian":[2.396948E1,2.0125528E1,3.8439512E0,1.1902116E1,8.2234125E0,7.496343E0,4.4057727E0,4.4692335E0,3.0271099E0,2.9235282E0,1.4822447E0,1.6049535E0,2.8642797E0],"tree_param":{"num_deleted":"0","num_feature":"7","num_nodes":"13","size_leaf_vector":"1"}},{"base_weights":[-5.6029767E-2,-4.8162404E-2,4.904903E-2],"categories":[],"categories_nodes":[],"categories_segments":[],"categories_sizes":[],"default_left":[0,0,0],"id":73,"left_children":[1,-1,-1],"loss_changes":[4.68238E0,0E0,0E0],"parents":[2147483647,0,0],"right_children":[2,-1,-1],"split_conditions":[1.51E2,-4.8162404E-2,4.904903E-2],"split_indices":[2,0,0],"split_type":[0,0,0],"sum_hessian":[1.8115343E1,1.0251155E1,7.8641887E0],"tree_param":{"num_deleted":"0","num_feature":"7","num_nodes":"3","size_leaf_vector":"1"}},{"base_weights":[-3.834356E-2,1.5964437E-1,-3.8870114E-1,2.6199347E-1,-3.516976E-2,-8.469716E-3,-4.4758536E-2,3.4393126E-1,3.8101353E-2,1.8842658E-1,4.5938935E-2,-3.7058428E-2,3.9507832E-2,4.089879E-2,-1.2699078E-2],"categories":[],"categories_nodes":[],"categories_segments":[],"categories_sizes":[],"default_left":[0,0,0,0,0,0,0,0,0,0,0,0,0,0,0],"id":74,"left_children":[1,3,5,7,-1,-1,-1,9,11,13,-1,-1,-1,-1,-1],"loss_changes":[1.6750335E0,9.067964E-1,1.1759639E-1,2.3534638E-1,0E0,0E0,0E0,8.92117E-2,8.3983666E-1,4.6009547E-1,0E0,0E0,0E0,0E0,0E0],"parents":[2147483647,0,0,1,1,2,2,3,3,7,7,8,8,9,9],"right_children":[2,4,6,8,-1,-1,-1,10,12,14,-1,-1,-1,-1,-1],"split_conditions":[1.3910953E1,1.49E2,1.4944956E1,1.7E1,-3.516976E-2,-8.469716E-3,-4.4758536E-2,1E1,2E1,7E0,4.5938935E-2,-3.7058428E-2,3.9507832E-2,4.089879E-2,-1.2699078E-2],"split_indices":[3,2,3,4,0,0,0,4,4,4,0,0,0,0,0],"split_type":[0,0,0,0,0,0,0,0,0,0,0,0,0,0,0],"sum_hessian":[2.2252981E1,1.4566024E1,7.6869574E0,1.2543066E1,2.0229576E0,1.6429906E0,6.043967E0,8.7900305E0,3.7530355E0,4.86696E0,3.9230711E0,1.7320161E0,2.0210195E0,2.6895719E0,2.177388E0],"tree_param":{"num_deleted":"0","num_feature":"7","num_nodes":"15","size_leaf_vector":"1"}},{"base_weights":[7.532539E-2,1.8147205E-1,-4.0610485E-2,-3.92081E-2,4.773866E-2,5.95749E-2,-4.1527063E-2,-2.9173566E-2,1.3581847E-1,4.242307E-2,-1.622176E-3],"categories":[],"categories_nodes":[],"categories_segments":[],"categories_sizes":[],"default_left":[0,0,0,0,0,0,0,0,0,0,0],"id":75,"left_children":[1,3,-1,5,-1,7,-1,-1,9,-1,-1],"loss_changes":[1.2736666E0,1.3202543E0,0E0,4.831856E-1,0E0,3.248347E-1,0E0,0E0,4.204611E-1,0E0,0E0],"parents":[2147483647,0,0,1,1,3,3,5,5,8,8],"right_children":[2,4,-1,6,-1,8,-1,-1,10,-1,-1],"split_conditions":[1.51E2,1.4944956E1,-4.0610485E-2,5E0,4.773866E-2,7E0,-4.1527063E-2,-2.9173566E-2,1E1,4.242307E-2,-1.622176E-3],"split_indices":[2,3,0,5,0,4,0,0,4,0,0],"split_type":[0,0,0,0,0,0,0,0,0,0,0],"sum_hessian":[2.2481762E1,1.8930899E1,3.5508645E0,1.1340872E1,7.590026E0,9.648116E0,1.6927562E0,1.2164887E0,8.431627E0,2.292543E0,6.1390843E0],"tree_param":{"num_deleted":"0","num_feature":"7","num_nodes":"11","size_leaf_vector":"1"}},{"base_weights":[-5.49894E-2,-4.7637753E-2,4.828136E-2],"categories":[],"categories_nodes":[],"categories_segments":[],"categories_sizes":[],"default_left":[0,0,0],"id":76,"left_children":[1,-1,-1],"loss_changes":[4.2694435E0,0E0,0E0],"parents":[2147483647,0,0],"right_children":[2,-1,-1],"split_conditions":[1.51E2,-4.7637753E-2,4.828136E-2],"split_indices":[2,0,0],"split_type":[0,0,0],"sum_hessian":[1.6824442E1,9.497232E0,7.3272095E0],"tree_param":{"num_deleted":"0","num_feature":"7","num_nodes":"3","size_leaf_vector":"1"}},{"base_weights":[-3.597305E-2,1.2864928E-1,-4.406178E-2,2.5982758E-1,-3.8900115E-2,3.6155534E-1,-3.1215683E-4,1.8292642E-1,4.875171E-2,-3.82829E-2,3.8348816E-2,3.984813E-2,-1.1776759E-2],"categories":[],"categories_nodes":[],"categories_segments":[],"categories_sizes":[],"default_left":[0,0,0,0,0,0,0,0,0,0,0,0,0],"id":77,"left_children":[1,3,-1,5,-1,7,9,11,-1,-1,-1,-1,-1],"loss_changes":[1.5170168E0,1.2117771E0,0E0,3.6132306E-1,0E0,1.3162065E-1,8.568197E-1,4.1370577E-1,0E0,0E0,0E0,0E0,0E0],"parents":[2147483647,0,0,1,1,3,3,5,5,6,6,7,7],"right_children":[2,4,-1,6,-1,8,10,12,-1,-1,-1,-1,-1],"split_conditions":[1.4944956E1,1.49E2,-4.406178E-2,1.7E1,-3.8900115E-2,1E1,2E1,7E0,4.875171E-2,-3.82829E-2,3.8348816E-2,3.984813E-2,-1.1776759E-2],"split_indices":[3,2,0,4,0,4,4,4,0,0,0,0,0],"split_type":[0,0,0,0,0,0,0,0,0,0,0,0,0],"sum_hessian":[2.0922436E1,1.535685E1,5.5655856E0,1.2649413E1,2.7074366E0,8.8131695E0,3.8362436E0,4.6587467E0,4.154423E0,1.9226018E0,1.9136418E0,2.524112E0,2.1346345E0],"tree_param":{"num_deleted":"0","num_feature":"7","num_nodes":"13","size_leaf_vector":"1"}},{"base_weights":[7.214168E-2,1.7462453E-1,-3.9767858E-2,-3.8041595E-2,4.696437E-2,5.9340738E-2,-4.085903E-2,-8.68216E-2,2.508254E-1,1.6469551E-2,-3.964727E-2,4.0575698E-2,2.733322E-3],"categories":[],"categories_nodes":[],"categories_segments":[],"categories_sizes":[],"default_left":[0,0,0,0,0,0,0,0,0,0,0,0,0],"id":78,"left_children":[1,3,-1,5,-1,7,-1,9,11,-1,-1,-1,-1],"loss_changes":[1.1390432E0,1.205637E0,0E0,4.54604E-1,0E0,3.1054002E-1,0E0,5.788578E-1,1.5246192E-1,0E0,0E0,0E0,0E0],"parents":[2147483647,0,0,1,1,3,3,5,5,7,7,8,8],"right_children":[2,4,-1,6,-1,8,-1,10,12,-1,-1,-1,-1],"split_conditions":[1.51E2,1.4944956E1,-3.9767858E-2,5E0,4.696437E-2,1.7E1,-4.085903E-2,1E1,1.9E1,1.6469551E-2,-3.964727E-2,4.0575698E-2,2.733322E-3],"split_indices":[2,3,0,5,0,4,0,4,4,0,0,0,0],"split_type":[0,0,0,0,0,0,0,0,0,0,0,0,0],"sum_hessian":[2.1214573E1,1.7931463E1,3.2831104E0,1.0926263E1,7.005201E0,9.317442E0,1.6088203E0,5.5940385E0,3.7234037E0,3.3450856E0,2.2489529E0,1.7173522E0,2.0060515E0],"tree_param":{"num_deleted":"0","num_feature":"7","num_nodes":"13","size_leaf_vector":"1"}},{"base_weights":[-5.5603307E-2,-4.7142874E-2,4.7483902E-2],"categories":[],"categories_nodes":[],"categories_segments":[],"categories_sizes":[],"default_left":[0,0,0],"id":79,"left_children":[1,-1,-1],"loss_changes":[3.8914819E0,0E0,0E0],"parents":[2147483647,0,0],"right_children":[2,-1,-1],"split_conditions":[1.51E2,-4.7142874E-2,4.7483902E-2],"split_indices":[2,0,0],"split_type":[0,0,0],"sum_hessian":[1.5627855E1,8.822757E0,6.805099E0],"tree_param":{"num_deleted":"0","num_feature":"7","num_nodes":"3","size_leaf_vector":"1"}},{"base_weights":[-3.2676518E-2,1.2664166E-1,-4.3355253E-2,2.52672E-1,-3.793203E-2,3.5535908E-1,-5.976614E-3,1.7840543E-1,4.783471E-2,-3.78081E-2,3.7460253E-2,3.8829245E-2,-1.0927948E-2],"categories":[],"categories_nodes":[],"categories_segments":[],"categories_sizes":[],"default_left":[0,0,0,0,0,0,0,0,0,0,0,0,0],"id":80,"left_children":[1,3,-1,5,-1,7,9,11,-1,-1,-1,-1,-1],"loss_changes":[1.3801306E0,1.092039E0,0E0,3.502528E-1,0E0,1.1921084E-1,8.0841064E-1,3.714342E-1,0E0,0E0,0E0,0E0,0E0],"parents":[2147483647,0,0,1,1,3,3,5,5,6,6,7,7],"right_children":[2,4,-1,6,-1,8,10,12,-1,-1,-1,-1,-1],"split_conditions":[1.4944956E1,1.49E2,-4.3355253E-2,1.7E1,-3.793203E-2,1E1,2E1,7E0,4.783471E-2,-3.78081E-2,3.7460253E-2,3.8829245E-2,-1.0927948E-2],"split_indices":[3,2,0,4,0,4,4,4,0,0,0,0,0],"split_type":[0,0,0,0,0,0,0,0,0,0,0,0,0],"sum_hessian":[1.9749813E1,1.4622538E1,5.127276E0,1.2107328E1,2.51521E0,8.39893E0,3.708398E0,4.448736E0,3.950194E0,1.8783951E0,1.830003E0,2.3699625E0,2.0787737E0],"tree_param":{"num_deleted":"0","num_feature":"7","num_nodes":"13","size_leaf_vector":"1"}},{"base_weights":[6.925718E-2,1.6837789E-1,-3.8917642E-2,-3.6734343E-2,4.6200495E-2,5.9607092E-2,-4.0199485E-2,-2.8058035E-2,1.3473667E-1,4.0829238E-2,-1.3459225E-3],"categories":[],"categories_nodes":[],"categories_segments":[],"categories_sizes":[],"default_left":[0,0,0,0,0,0,0,0,0,0,0],"id":81,"left_children":[1,3,-1,5,-1,7,-1,-1,9,-1,-1],"loss_changes":[1.0203397E0,1.0995371E0,0E0,4.2895553E-1,0E0,2.9281607E-1,0E0,0E0,3.6420602E-1,0E0,0E0],"parents":[2147483647,0,0,1,1,3,3,5,5,8,8],"right_children":[2,4,-1,6,-1,8,-1,-1,10,-1,-1],"split_conditions":[1.51E2,1.4944956E1,-3.8917642E-2,5E0,4.6200495E-2,7E0,-4.0199485E-2,-2.8058035E-2,1E1,4.0829238E-2,-1.3459225E-3],"split_indices":[2,3,0,5,0,4,0,0,4,0,0],"split_type":[0,0,0,0,0,0,0,0,0,0,0],"sum_hessian":[2.0012445E1,1.6974907E1,3.0375376E0,1.0508866E1,6.466041E0,8.977708E0,1.5311587E0,1.1293557E0,7.8483524E0,2.1410637E0,5.7072887E0],"tree_param":{"num_deleted":"0","num_feature":"7","num_nodes":"11","size_leaf_vector":"1"}},{"base_weights":[-5.5887233E-2,-4.6630334E-2,4.6705436E-2],"categories":[],"categories_nodes":[],"categories_segments":[],"categories_sizes":[],"default_left":[0,0,0],"id":82,"left_children":[1,-1,-1],"loss_changes":[3.5476227E0,0E0,0E0],"parents":[2147483647,0,0],"right_children":[2,-1,-1],"split_conditions":[1.51E2,-4.6630334E-2,4.6705436E-2],"split_indices":[2,0,0],"split_type":[0,0,0],"sum_hessian":[1.4514758E1,8.19301E0,6.3217483E0],"tree_param":{"num_deleted":"0","num_feature":"7","num_nodes":"3","size_leaf_vector":"1"}},{"base_weights":[-2.994203E-2,1.2422937E-1,-4.263773E-2,2.4554877E-1,-3.6981575E-2,3.4518915E-1,-5.78405E-3,1.7293388E-1,4.66504E-2,-3.6961723E-2,3.6638726E-2,3.811368E-2,-1.0638787E-2],"categories":[],"categories_nodes":[],"categories_segments":[],"categories_sizes":[],"default_left":[0,0,0,0,0,0,0,0,0,0,0,0,0],"id":83,"left_children":[1,3,-1,5,-1,7,9,11,-1,-1,-1,-1,-1],"loss_changes":[1.2536E0,9.849591E-1,0E0,3.169856E-1,0E0,1.0789299E-1,7.521231E-1,3.4981894E-1,0E0,0E0,0E0,0E0,0E0],"parents":[2147483647,0,0,1,1,3,3,5,5,6,6,7,7],"right_children":[2,4,-1,6,-1,8,10,12,-1,-1,-1,-1,-1],"split_conditions":[1.4944956E1,1.49E2,-4.263773E-2,1.7E1,-3.6981575E-2,1E1,2E1,7E0,4.66504E-2,-3.6961723E-2,3.6638726E-2,3.811368E-2,-1.0638787E-2],"split_indices":[3,2,0,4,0,4,4,4,0,0,0,0,0],"split_type":[0,0,0,0,0,0,0,0,0,0,0,0,0],"sum_hessian":[1.8644169E1,1.3918123E1,4.7260447E0,1.1577979E1,2.3401449E0,8.023603E0,3.5543752E0,4.3179836E0,3.7056198E0,1.8007914E0,1.7535839E0,2.265099E0,2.0528846E0],"tree_param":{"num_deleted":"0","num_feature":"7","num_nodes":"13","size_leaf_vector":"1"}},{"base_weights":[6.617065E-2,1.6190487E-1,-3.8060255E-2,-3.5808586E-2,4.544304E-2,5.9365153E-2,-3.955235E-2,-2.7224714E-2,1.3215427E-1,3.989112E-2,-1.2307065E-3],"categories":[],"categories_nodes":[],"categories_segments":[],"categories_sizes":[],"default_left":[0,0,0,0,0,0,0,0,0,0,0],"id":84,"left_children":[1,3,-1,5,-1,7,-1,-1,9,-1,-1],"loss_changes":[9.13333E-1,1.0053096E0,0E0,4.0455163E-1,0E0,2.6942816E-1,0E0,0E0,3.3647197E-1,0E0,0E0],"parents":[2147483647,0,0,1,1,3,3,5,5,8,8],"right_children":[2,4,-1,6,-1,8,-1,-1,10,-1,-1],"split_conditions":[1.51E2,1.4944956E1,-3.8060255E-2,5E0,4.544304E-2,7E0,-3.955235E-2,-2.7224714E-2,1E1,3.989112E-2,-1.2307065E-3],"split_indices":[2,3,0,5,0,4,0,0,4,0,0],"split_type":[0,0,0,0,0,0,0,0,0,0,0],"sum_hessian":[1.8913069E1,1.6100647E1,2.8124223E0,1.013091E1,5.969737E0,8.671549E0,1.4593612E0,1.0675936E0,7.603955E0,2.052505E0,5.55145E0],"tree_param":{"num_deleted":"0","num_feature":"7","num_nodes":"11","size_leaf_vector":"1"}},{"base_weights":[-5.6432147E-2,-4.613007E-2,4.594179E-2],"categories":[],"categories_nodes":[],"categories_segments":[],"categories_sizes":[],"default_left":[0,0,0],"id":85,"left_children":[1,-1,-1],"loss_changes":[3.2392242E0,0E0,0E0],"parents":[2147483647,0,0],"right_children":[2,-1,-1],"split_conditions":[1.51E2,-4.613007E-2,4.594179E-2],"split_indices":[2,0,0],"split_type":[0,0,0],"sum_hessian":[1.3494966E1,7.6200566E0,5.874909E0],"tree_param":{"num_deleted":"0","num_feature":"7","num_nodes":"3","size_leaf_vector":"1"}},{"base_weights":[-2.6824739E-2,1.22380935E-1,-4.190832E-2,2.3904984E-1,-3.602386E-2,3.3951712E-1,-1.0757461E-2,1.6887417E-1,4.5792233E-2,-3.6501523E-2,3.5813466E-2,3.7138615E-2,-9.855982E-3],"categories":[],"categories_nodes":[],"categories_segments":[],"categories_sizes":[],"default_left":[0,0,0,0,0,0,0,0,0,0,0,0,0],"id":86,"left_children":[1,3,-1,5,-1,7,9,11,-1,-1,-1,-1,-1],"loss_changes":[1.141496E0,8.8952166E-1,0E0,3.0712467E-1,0E0,9.752828E-2,7.106298E-1,3.1440255E-1,0E0,0E0,0E0,0E0,0E0],"parents":[2147483647,0,0,1,1,3,3,5,5,6,6,7,7],"right_children":[2,4,-1,6,-1,8,10,12,-1,-1,-1,-1,-1],"split_conditions":[1.4944956E1,1.49E2,-4.190832E-2,1.7E1,-3.602386E-2,1E1,2E1,7E0,4.5792233E-2,-3.6501523E-2,3.5813466E-2,3.7138615E-2,-9.855982E-3],"split_indices":[3,2,0,4,0,4,4,4,0,0,0,0,0],"split_type":[0,0,0,0,0,0,0,0,0,0,0,0,0],"sum_hessian":[1.762738E1,1.3268407E1,4.358973E0,1.1091758E1,2.1766496E0,7.6542587E0,3.4374986E0,4.129359E0,3.5248997E0,1.7588928E0,1.6786059E0,2.1287103E0,2.0006487E0],"tree_param":{"num_deleted":"0","num_feature":"7","num_nodes":"13","size_leaf_vector":"1"}},{"base_weights":[6.313784E-2,1.5561067E-1,-3.71965E-2,-3.4967877E-2,4.468854E-2,5.9125822E-2,-3.8913164E-2,-8.185495E-2,2.3548238E-1,1.5746627E-2,-3.743461E-2,3.788708E-2,2.4613375E-3],"categories":[],"categories_nodes":[],"categories_segments":[],"categories_sizes":[],"default_left":[0,0,0,0,0,0,0,0,0,0,0,0,0],"id":87,"left_children":[1,3,-1,5,-1,7,-1,9,11,-1,-1,-1,-1],"loss_changes":[8.1796145E-1,9.196069E-1,0E0,3.8196006E-1,0E0,2.524513E-1,0E0,4.7572538E-1,1.24452814E-1,0E0,0E0,0E0,0E0],"parents":[2147483647,0,0,1,1,3,3,5,5,7,7,8,8],"right_children":[2,4,-1,6,-1,8,-1,10,12,-1,-1,-1,-1],"split_conditions":[1.51E2,1.4944956E1,-3.71965E-2,5E0,4.468854E-2,1.7E1,-3.8913164E-2,1E1,1.9E1,1.5746627E-2,-3.743461E-2,3.788708E-2,2.4613375E-3],"split_indices":[2,3,0,5,0,4,0,4,4,0,0,0,0],"split_type":[0,0,0,0,0,0,0,0,0,0,0,0,0],"sum_hessian":[1.7890924E1,1.5284791E1,2.6061327E0,9.771399E0,5.5133924E0,8.378473E0,1.3929253E0,4.9540358E0,3.424438E0,2.9785626E0,1.9754729E0,1.5641339E0,1.8603041E0],"tree_param":{"num_deleted":"0","num_feature":"7","num_nodes":"13","size_leaf_vector":"1"}},{"base_weights":[-5.6948718E-2,-4.5625765E-2,4.5189556E-2],"categories":[],"categories_nodes":[],"categories_segments":[],"categories_sizes":[],"default_left":[0,0,0],"id":88,"left_children":[1,-1,-1],"loss_changes":[2.9603145E0,0E0,0E0],"parents":[2147483647,0,0],"right_children":[2,-1,-1],"split_conditions":[1.51E2,-4.5625765E-2,4.5189556E-2],"split_indices":[2,0,0],"split_type":[0,0,0],"sum_hessian":[1.2554738E1,7.092408E0,5.46233E0],"tree_param":{"num_deleted":"0","num_feature":"7","num_nodes":"3","size_leaf_vector":"1"}},{"base_weights":[-2.3798246E-2,1.2059049E-1,-4.116659E-2,2.3282848E-1,-3.507207E-2,3.3403912E-1,-1.5374642E-2,1.6499832E-1,4.4958413E-2,-3.6045697E-2,3.501672E-2,3.618583E-2,-9.11699E-3],"categories":[],"categories_nodes":[],"categories_segments":[],"categories_sizes":[],"default_left":[0,0,0,0,0,0,0,0,0,0,0,0,0],"id":89,"left_children":[1,3,-1,5,-1,7,9,11,-1,-1,-1,-1,-1],"loss_changes":[1.0399084E0,8.041961E-1,0E0,2.9735935E-1,0E0,8.8074565E-2,6.7185E-1,2.82747E-1,0E0,0E0,0E0,0E0,0E0],"parents":[2147483647,0,0,1,1,3,3,5,5,6,6,7,7],"right_children":[2,4,-1,6,-1,8,10,12,-1,-1,-1,-1,-1],"split_conditions":[1.4944956E1,1.49E2,-4.116659E-2,1.7E1,-3.507207E-2,1E1,2E1,7E0,4.4958413E-2,-3.6045697E-2,3.501672E-2,3.618583E-2,-9.11699E-3],"split_indices":[3,2,0,4,0,4,4,4,0,0,0,0,0],"split_type":[0,0,0,0,0,0,0,0,0,0,0,0,0],"sum_hessian":[1.6682138E1,1.2658821E1,4.0233164E0,1.063274E1,2.026081E0,7.3072205E0,3.3255198E0,3.9526079E0,3.3546126E0,1.7177876E0,1.6077322E0,2.001735E0,1.9508729E0],"tree_param":{"num_deleted":"0","num_feature":"7","num_nodes":"13","size_leaf_vector":"1"}},{"base_weights":[6.0406264E-2,1.4990434E-1,-3.6327522E-2,-3.3982843E-2,4.393426E-2,5.936947E-2,-3.8281903E-2,-7.589051E-2,2.2689793E-1,1.536898E-2,-3.638824E-2,3.663264E-2,2.2899776E-3],"categories":[],"categories_nodes":[],"categories_segments":[],"categories_sizes":[],"default_left":[0,0,0,0,0,0,0,0,0,0,0,0,0],"id":90,"left_children":[1,3,-1,5,-1,7,-1,9,11,-1,-1,-1,-1],"loss_changes":[7.339157E-1,8.399929E-1,0E0,3.616442E-1,0E0,2.2288193E-1,0E0,4.374886E-1,1.1406025E-1,0E0,0E0,0E0,0E0],"parents":[2147483647,0,0,1,1,3,3,5,5,7,7,8,8],"right_children":[2,4,-1,6,-1,8,-1,10,12,-1,-1,-1,-1],"split_conditions":[1.51E2,1.4944956E1,-3.6327522E-2,5E0,4.393426E-2,1.7E1,-3.8281903E-2,1E1,1.9E1,1.536898E-2,-3.638824E-2,3.663264E-2,2.2899776E-3],"split_indices":[2,3,0,5,0,4,0,4,4,0,0,0,0],"split_type":[0,0,0,0,0,0,0,0,0,0,0,0,0],"sum_hessian":[1.691885E1,1.4501708E1,2.4171412E0,9.407491E0,5.0942183E0,8.076057E0,1.3314328E0,4.7710123E0,3.3050454E0,2.9142115E0,1.8568007E0,1.490551E0,1.8144943E0],"tree_param":{"num_deleted":"0","num_feature":"7","num_nodes":"13","size_leaf_vector":"1"}},{"base_weights":[-5.707372E-2,-4.5098152E-2,4.4445936E-2],"categories":[],"categories_nodes":[],"categories_segments":[],"categories_sizes":[],"default_left":[0,0,0],"id":91,"left_children":[1,-1,-1],"loss_changes":[2.7055357E0,0E0,0E0],"parents":[2147483647,0,0],"right_children":[2,-1,-1],"split_conditions":[1.51E2,-4.5098152E-2,4.4445936E-2],"split_indices":[2,0,0],"split_type":[0,0,0],"sum_hessian":[1.1680302E1,6.5985475E0,5.081754E0],"tree_param":{"num_deleted":"0","num_feature":"7","num_nodes":"3","size_leaf_vector":"1"}},{"base_weights":[-2.1365138E-2,1.1836648E-1,-4.041249E-2,2.2656333E-1,-3.413982E-2,3.2470146E-1,-1.4691316E-2,1.6018575E-1,4.3859567E-2,-3.525231E-2,3.427687E-2,3.5529405E-2,-8.893652E-3],"categories":[],"categories_nodes":[],"categories_segments":[],"categories_sizes":[],"default_left":[0,0,0,0,0,0,0,0,0,0,0,0,0],"id":92,"left_children":[1,3,-1,5,-1,7,9,11,-1,-1,-1,-1,-1],"loss_changes":[9.457751E-1,7.276442E-1,0E0,2.6954997E-1,0E0,7.950872E-2,6.268797E-1,2.67101E-1,0E0,0E0,0E0,0E0,0E0],"parents":[2147483647,0,0,1,1,3,3,5,5,6,6,7,7],"right_children":[2,4,-1,6,-1,8,10,12,-1,-1,-1,-1,-1],"split_conditions":[1.4944956E1,1.49E2,-4.041249E-2,1.7E1,-3.413982E-2,1E1,2E1,7E0,4.3859567E-2,-3.525231E-2,3.427687E-2,3.5529405E-2,-8.893652E-3],"split_indices":[3,2,0,4,0,4,4,4,0,0,0,0,0],"split_type":[0,0,0,0,0,0,0,0,0,0,0,0,0],"sum_hessian":[1.5789063E1,1.2072566E1,3.7164981E0,1.01833315E1,1.8892343E0,6.9928694E0,3.190462E0,3.8451478E0,3.1477213E0,1.6473652E0,1.5430969E0,1.9173381E0,1.9278097E0],"tree_param":{"num_deleted":"0","num_feature":"7","num_nodes":"13","size_leaf_vector":"1"}},{"base_weights":[5.7702214E-2,1.4432797E-1,-3.5454765E-2,-3.3118058E-2,4.317813E-2,-3.8210746E-2,5.859368E-2,-2.8258178E-2,1.4769077E-1,3.7983064E-2,6.934888E-4],"categories":[],"categories_nodes":[],"categories_segments":[],"categories_sizes":[],"default_left":[0,0,0,0,0,0,0,0,0,0,0],"id":93,"left_children":[1,3,-1,5,-1,-1,7,-1,9,-1,-1],"loss_changes":[6.588412E-1,7.6778644E-1,0E0,3.4445497E-1,0E0,0E0,3.103148E-1,0E0,2.4774487E-1,0E0,0E0],"parents":[2147483647,0,0,1,1,3,3,6,6,8,8],"right_children":[2,4,-1,6,-1,-1,8,-1,10,-1,-1],"split_conditions":[1.51E2,1.4944956E1,-3.5454765E-2,3.6615963E1,4.317813E-2,-3.8210746E-2,7E0,-2.8258178E-2,1E1,3.7983064E-2,6.934888E-4],"split_indices":[2,3,0,0,0,0,4,0,4,0,0],"split_type":[0,0,0,0,0,0,0,0,0,0,0],"sum_hessian":[1.6016108E1,1.3772091E1,2.2440174E0,9.062539E0,4.709552E0,1.2270117E0,7.8355274E0,1.1728333E0,6.662694E0,1.8738176E0,4.7888765E0],"tree_param":{"num_deleted":"0","num_feature":"7","num_nodes":"11","size_leaf_vector":"1"}},{"base_weights":[-5.7147272E-2,-4.4564053E-2,4.3708667E-2],"categories":[],"categories_nodes":[],"categories_segments":[],"categories_sizes":[],"default_left":[0,0,0],"id":94,"left_children":[1,-1,-1],"loss_changes":[2.4748003E0,0E0,0E0],"parents":[2147483647,0,0],"right_children":[2,-1,-1],"split_conditions":[1.51E2,-4.4564053E-2,4.3708667E-2],"split_indices":[2,0,0],"split_type":[0,0,0],"sum_hessian":[1.08746805E1,6.143721E0,4.7309594E0],"tree_param":{"num_deleted":"0","num_feature":"7","num_nodes":"3","size_leaf_vector":"1"}},{"base_weights":[-1.9001711E-2,1.1621983E-1,-3.9646383E-2,2.2056042E-1,-3.3215843E-2,3.1569573E-1,-1.4009703E-2,1.556089E-1,4.2789917E-2,-3.4485117E-2,3.356041E-2,3.4893405E-2,-8.682853E-3],"categories":[],"categories_nodes":[],"categories_segments":[],"categories_sizes":[],"default_left":[0,0,0,0,0,0,0,0,0,0,0,0,0],"id":95,"left_children":[1,3,-1,5,-1,7,9,11,-1,-1,-1,-1,-1],"loss_changes":[8.6067814E-1,6.591672E-1,0E0,2.4455106E-1,0E0,7.168931E-2,5.856164E-1,2.5262773E-1,0E0,0E0,0E0,0E0,0E0],"parents":[2147483647,0,0,1,1,3,3,5,5,6,6,7,7],"right_children":[2,4,-1,6,-1,8,10,12,-1,-1,-1,-1,-1],"split_conditions":[1.4944956E1,1.49E2,-3.9646383E-2,1.7E1,-3.3215843E-2,1E1,2E1,7E0,4.2789917E-2,-3.4485117E-2,3.356041E-2,3.4893405E-2,-8.682853E-3],"split_indices":[3,2,0,4,0,4,4,4,0,0,0,0,0],"split_type":[0,0,0,0,0,0,0,0,0,0,0,0,0],"sum_hessian":[1.495974E1,1.1523631E1,3.436109E0,9.760411E0,1.7632194E0,6.6980257E0,3.0623858E0,3.7436292E0,2.9543962E0,1.5804344E0,1.4819514E0,1.8383846E0,1.9052446E0],"tree_param":{"num_deleted":"0","num_feature":"7","num_nodes":"13","size_leaf_vector":"1"}},{"base_weights":[5.478541E-2,1.385317E-1,-3.4579895E-2,-3.2661743E-2,4.2418554E-2,6.0714126E-2,-3.7208702E-2,-6.894938E-2,2.164811E-1,1.4925106E-2,-3.470101E-2,3.4830503E-2,2.1442543E-3],"categories":[],"categories_nodes":[],"categories_segments":[],"categories_sizes":[],"default_left":[0,0,0,0,0,0,0,0,0,0,0,0,0],"id":96,"left_children":[1,3,-1,5,-1,7,-1,9,11,-1,-1,-1,-1],"loss_changes":[5.91031E-1,7.03588E-1,0E0,3.315321E-1,0E0,1.8668969E-1,0E0,3.7939218E-1,9.806974E-2,0E0,0E0,0E0,0E0],"parents":[2147483647,0,0,1,1,3,3,5,5,7,7,8,8],"right_children":[2,4,-1,6,-1,8,-1,10,12,-1,-1,-1,-1],"split_conditions":[1.51E2,1.4944956E1,-3.4579895E-2,5E0,4.2418554E-2,1.7E1,-3.7208702E-2,1E1,1.9E1,1.4925106E-2,-3.470101E-2,3.4830503E-2,2.1442543E-3],"split_indices":[2,3,0,5,0,4,0,4,4,0,0,0,0],"split_type":[0,0,0,0,0,0,0,0,0,0,0,0,0],"sum_hessian":[1.5189811E1,1.3104381E1,2.0854301E0,8.747581E0,4.3567996E0,7.5042806E0,1.2433003E0,4.3994484E0,3.1048322E0,2.7246208E0,1.6748278E0,1.3837488E0,1.7210832E0],"tree_param":{"num_deleted":"0","num_feature":"7","num_nodes":"13","size_leaf_vector":"1"}},{"base_weights":[-5.7449818E-2,-4.4037383E-2,4.297599E-2],"categories":[],"categories_nodes":[],"categories_segments":[],"categories_sizes":[],"default_left":[0,0,0],"id":97,"left_children":[1,-1,-1],"loss_changes":[2.2672668E0,0E0,0E0],"parents":[2147483647,0,0],"right_children":[2,-1,-1],"split_conditions":[1.51E2,-4.4037383E-2,4.297599E-2],"split_indices":[2,0,0],"split_type":[0,0,0],"sum_hessian":[1.0138314E1,5.730523E0,4.4077916E0],"tree_param":{"num_deleted":"0","num_feature":"7","num_nodes":"3","size_leaf_vector":"1"}},{"base_weights":[-1.6258754E-2,1.1464601E-1,-3.886899E-2,2.1520391E-1,-3.2287806E-2,3.1058162E-1,-1.698249E-2,1.5226468E-1,4.1980695E-2,-3.4030966E-2,3.287004E-2,3.3989515E-2,-8.023967E-3],"categories":[],"categories_nodes":[],"categories_segments":[],"categories_sizes":[],"default_left":[0,0,0,0,0,0,0,0,0,0,0,0,0],"id":98,"left_children":[1,3,-1,5,-1,7,9,11,-1,-1,-1,-1,-1],"loss_changes":[7.85422E-1,5.981591E-1,0E0,2.3493794E-1,0E0,6.409055E-2,5.5533797E-1,2.2757177E-1,0E0,0E0,0E0,0E0,0E0],"parents":[2147483647,0,0,1,1,3,3,5,5,6,6,7,7],"right_children":[2,4,-1,6,-1,8,10,12,-1,-1,-1,-1,-1],"split_conditions":[1.4944956E1,1.49E2,-3.886899E-2,1.7E1,-3.2287806E-2,1E1,2E1,7E0,4.1980695E-2,-3.4030966E-2,3.287004E-2,3.3989515E-2,-8.023967E-3],"split_indices":[3,2,0,4,0,4,4,4,0,0,0,0,0],"split_type":[0,0,0,0,0,0,0,0,0,0,0,0,0],"sum_hessian":[1.4196196E1,1.1016282E1,3.1799133E0,9.3707075E0,1.6455748E0,6.4028864E0,2.9678216E0,3.591385E0,2.8115013E0,1.5415289E0,1.4262927E0,1.731877E0,1.8595079E0],"tree_param":{"num_deleted":"0","num_feature":"7","num_nodes":"13","size_leaf_vector":"1"}},{"base_weights":[5.2182805E-2,1.3327801E-1,-3.3704754E-2,-3.1969838E-2,4.165436E-2,6.0801968E-2,-3.660435E-2,-6.358789E-2,2.0884031E-1,1.4593569E-2,-3.371612E-2,3.371495E-2,1.9890512E-3],"categories":[],"categories_nodes":[],"categories_segments":[],"categories_sizes":[],"default_left":[0,0,0,0,0,0,0,0,0,0,0,0,0],"id":99,"left_children":[1,3,-1,5,-1,7,-1,9,11,-1,-1,-1,-1],"loss_changes":[5.3128266E-1,6.437525E-1,0E0,3.1466538E-1,0E0,1.6504753E-1,0E0,3.4985855E-1,9.018694E-2,0E0,0E0,0E0,0E0],"parents":[2147483647,0,0,1,1,3,3,5,5,7,7,8,8],"right_children":[2,4,-1,6,-1,8,-1,10,12,-1,-1,-1,-1],"split_conditions":[1.51E2,1.4944956E1,-3.3704754E-2,5E0,4.165436E-2,1.7E1,-3.660435E-2,1E1,1.9E1,1.4593569E-2,-3.371612E-2,3.371495E-2,1.9890512E-3],"split_indices":[2,3,0,5,0,4,0,4,4,0,0,0,0],"split_type":[0,0,0,0,0,0,0,0,0,0,0,0,0],"sum_hessian":[1.4408396E1,1.2468251E1,1.9401444E0,8.434802E0,4.033449E0,7.2417703E0,1.1930317E0,4.2451925E0,2.996578E0,2.6682203E0,1.576972E0,1.3175453E0,1.6790326E0],"tree_param":{"num_deleted":"0","num_feature":"7","num_nodes":"13","size_leaf_vector":"1"}},{"base_weights":[-5.7400133E-2,-4.3487992E-2,4.224668E-2],"categories":[],"categories_nodes":[],"categories_segments":[],"categories_sizes":[],"default_left":[0,0,0],"id":100,"left_children":[1,-1,-1],"loss_changes":[2.077447E0,0E0,0E0],"parents":[2147483647,0,0],"right_children":[2,-1,-1],"split_conditions":[1.51E2,-4.3487992E-2,4.224668E-2],"split_indices":[2,0,0],"split_type":[0,0,0],"sum_hessian":[9.454476E0,5.344253E0,4.110224E0],"tree_param":{"num_deleted":"0","num_feature":"7","num_nodes":"3","size_leaf_vector":"1"}},{"base_weights":[-1.4087587E-2,1.1260904E-1,-3.8081363E-2,2.0967595E-1,-3.1383757E-2,3.020913E-1,-1.6172092E-2,1.4806585E-1,4.0956784E-2,-3.3299208E-2,3.2195173E-2,3.3388745E-2,-7.847624E-3],"categories":[],"categories_nodes":[],"categories_segments":[],"categories_sizes":[],"default_left":[0,0,0,0,0,0,0,0,0,0,0,0,0],"id":101,"left_children":[1,3,-1,5,-1,7,9,11,-1,-1,-1,-1,-1],"loss_changes":[7.155886E-1,5.431783E-1,0E0,2.134718E-1,0E0,5.7596326E-2,5.19753E-1,2.1571173E-1,0E0,0E0,0E0,0E0,0E0],"parents":[2147483647,0,0,1,1,3,3,5,5,6,6,7,7],"right_children":[2,4,-1,6,-1,8,10,12,-1,-1,-1,-1,-1],"split_conditions":[1.4944956E1,1.49E2,-3.8081363E-2,1.7E1,-3.1383757E-2,1E1,2E1,7E0,4.0956784E-2,-3.3299208E-2,3.2195173E-2,3.3388745E-2,-7.847624E-3],"split_indices":[3,2,0,4,0,4,4,4,0,0,0,0,0],"split_type":[0,0,0,0,0,0,0,0,0,0,0,0,0],"sum_hessian":[1.347832E1,1.0532488E1,2.9458327E0,8.993682E0,1.5388051E0,6.1425924E0,2.85109E0,3.501797E0,2.6407955E0,1.47975E0,1.3713399E0,1.6634809E0,1.8383162E0],"tree_param":{"num_deleted":"0","num_feature":"7","num_nodes":"13","size_leaf_vector":"1"}},{"base_weights":[4.9615722E-2,1.2815243E-1,-3.2831322E-2,-3.137296E-2,4.088497E-2,6.084154E-2,-3.6012433E-2,-5.848965E-2,2.015498E-1,1.4277949E-2,-3.275434E-2,3.2645524E-2,1.8421857E-3],"categories":[],"categories_nodes":[],"categories_segments":[],"categories_sizes":[],"default_left":[0,0,0,0,0,0,0,0,0,0,0,0,0],"id":102,"left_children":[1,3,-1,5,-1,7,-1,9,11,-1,-1,-1,-1],"loss_changes":[4.7788465E-1,5.893922E-1,0E0,2.9895893E-1,0E0,1.4598753E-1,0E0,3.2293049E-1,8.3024085E-2,0E0,0E0,0E0,0E0],"parents":[2147483647,0,0,1,1,3,3,5,5,7,7,8,8],"right_children":[2,4,-1,6,-1,8,-1,10,12,-1,-1,-1,-1],"split_conditions":[1.51E2,1.4944956E1,-3.2831322E-2,5E0,4.088497E-2,1.7E1,-3.6012433E-2,1E1,1.9E1,1.4277949E-2,-3.275434E-2,3.2645524E-2,1.8421857E-3],"split_indices":[2,3,0,5,0,4,0,4,4,0,0,0,0],"split_type":[0,0,0,0,0,0,0,0,0,0,0,0,0],"sum_hessian":[1.3683003E1,1.1875986E1,1.8070177E0,8.138793E0,3.7371929E0,6.99237E0,1.1464231E0,4.0997734E0,2.8925967E0,2.613808E0,1.4859656E0,1.2543706E0,1.6382263E0],"tree_param":{"num_deleted":"0","num_feature":"7","num_nodes":"13","size_leaf_vector":"1"}},{"base_weights":[-5.7295535E-2,-4.2930942E-2,4.1519813E-2],"categories":[],"categories_nodes":[],"categories_segments":[],"categories_sizes":[],"default_left":[0,0,0],"id":103,"left_children":[1,-1,-1],"loss_changes":[1.9051961E0,0E0,0E0],"parents":[2147483647,0,0],"right_children":[2,-1,-1],"split_conditions":[1.51E2,-4.2930942E-2,4.1519813E-2],"split_indices":[2,0,0],"split_type":[0,0,0],"sum_hessian":[8.824807E0,4.988528E0,3.836279E0],"tree_param":{"num_deleted":"0","num_feature":"7","num_nodes":"3","size_leaf_vector":"1"}},{"base_weights":[-1.1988851E-2,1.1063932E-1,-3.7284844E-2,2.0437299E-1,-3.0492017E-2,2.9389915E-1,-1.53788375E-2,1.4407349E-1,3.995576E-2,-3.2590423E-2,3.154066E-2,3.280666E-2,-7.681392E-3],"categories":[],"categories_nodes":[],"categories_segments":[],"categories_sizes":[],"default_left":[0,0,0,0,0,0,0,0,0,0,0,0,0],"id":104,"left_children":[1,3,-1,5,-1,7,9,11,-1,-1,-1,-1,-1],"loss_changes":[6.5244377E-1,4.9389765E-1,0E0,1.9415951E-1,0E0,5.1644385E-2,4.87012E-1,2.0471445E-1,0E0,0E0,0E0,0E0,0E0],"parents":[2147483647,0,0,1,1,3,3,5,5,6,6,7,7],"right_children":[2,4,-1,6,-1,8,10,12,-1,-1,-1,-1,-1],"split_conditions":[1.4944956E1,1.49E2,-3.7284844E-2,1.7E1,-3.0492017E-2,1E1,2E1,7E0,3.995576E-2,-3.2590423E-2,3.154066E-2,3.280666E-2,-7.681392E-3],"split_indices":[3,2,0,4,0,4,4,4,0,0,0,0,0],"split_type":[0,0,0,0,0,0,0,0,0,0,0,0,0],"sum_hessian":[1.2811768E1,1.007982E1,2.7319481E0,8.639329E0,1.4404905E0,5.898774E0,2.7405553E0,3.4169924E0,2.4817817E0,1.4211782E0,1.319377E0,1.5994627E0,1.8175297E0],"tree_param":{"num_deleted":"0","num_feature":"7","num_nodes":"13","size_leaf_vector":"1"}},{"base_weights":[4.708811E-2,1.2315676E-1,-3.196163E-2,-3.0862277E-2,4.0110182E-2,-3.579487E-2,6.0312714E-2,-2.6490623E-2,1.4944814E-1,3.5817936E-2,9.7470265E-4],"categories":[],"categories_nodes":[],"categories_segments":[],"categories_sizes":[],"default_left":[0,0,0,0,0,0,0,0,0,0,0],"id":105,"left_children":[1,3,-1,5,-1,-1,7,-1,9,-1,-1],"loss_changes":[4.3015516E-1,5.3997844E-1,0E0,2.8577456E-1,0E0,0E0,2.6522043E-1,0E0,1.932922E-1,0E0,0E0],"parents":[2147483647,0,0,1,1,3,3,6,6,8,8],"right_children":[2,4,-1,6,-1,-1,8,-1,10,-1,-1],"split_conditions":[1.51E2,1.4944956E1,-3.196163E-2,3.6615963E1,4.0110182E-2,-3.579487E-2,7E0,-2.6490623E-2,1E1,3.5817936E-2,9.7470265E-4],"split_indices":[2,3,0,0,0,0,4,0,4,0,0],"split_type":[0,0,0,0,0,0,0,0,0,0,0],"sum_hessian":[1.3009545E1,1.132455E1,1.6849962E0,7.858721E0,3.4658282E0,1.0752728E0,6.783448E0,1.0350434E0,5.748405E0,1.6777442E0,4.0706606E0],"tree_param":{"num_deleted":"0","num_feature":"7","num_nodes":"11","size_leaf_vector":"1"}},{"base_weights":[-5.7136457E-2,-4.236624E-2,4.079483E-2],"categories":[],"categories_nodes":[],"categories_segments":[],"categories_sizes":[],"default_left":[0,0,0],"id":106,